{"class": "DQNAgent", "payload": {"model_state_dict": {"net.0.weight": [[-0.22911259531974792, -0.09195689111948013, 0.06628449261188507, -0.19728580117225647, -0.42257067561149597, -0.361952006816864, -0.3424818515777588, -0.17452722787857056, 0.056592658162117004, -0.020744793117046356], [0.07777387648820877, -0.5316140055656433, 0.21207624673843384, -0.17879219353199005, -0.07626732438802719, -0.06982311606407166, 0.15417012572288513, -0.14159727096557617, 0.11475952714681625, -0.7173919081687927], [-0.24842530488967896, 0.04302411526441574, -0.11127270013093948, 0.14617919921875, -0.23286542296409607, 0.11342402547597885, 0.039555083960294724, -0.05449749901890755, 0.22898195683956146, -0.2395796775817871], [-0.4470667541027069, -0.9082996249198914, -0.18792161345481873, 4.729562282562256, 1.6662884950637817, 4.531819820404053, 2.379671096801758, -0.4237700402736664, -0.6686620712280273, -1.5091174840927124], [-0.10851570963859558, 0.03169235587120056, 0.1233685165643692, -0.08529900759458542, -0.001026645302772522, 0.016422070562839508, -0.0955258309841156, -0.255139023065567, -0.24403923749923706, -0.009455069899559021], [-0.03193122148513794, 0.0652199536561966, -0.24032476544380188, 0.0790773257613182, 0.0994456559419632, -0.11907298862934113, -0.23351454734802246, -0.054393790662288666, -0.22133761644363403, -0.36795657873153687], [-0.5176738500595093, -0.509894609451294, -0.6778672933578491, -2.2627756595611572, -0.8396849036216736, -1.4268484115600586, -1.43913733959198, -0.21177059412002563, -0.9499115943908691, -0.8655081391334534], [-0.12558212876319885, 0.10334683954715729, 0.3157135248184204, -0.013569928705692291, -0.12185104191303253, -0.06851878017187119, 0.08149246126413345, -0.21145886182785034, -0.1175510361790657, -0.6073141694068909], [0.20250168442726135, -0.2357591986656189, -0.12532085180282593, -0.3704787492752075, -0.1351812183856964, 0.05516801029443741, -0.26728540658950806, 0.036248579621315, 0.19672511518001556, -0.3999646306037903], [0.027224302291870117, -0.09592663496732712, -0.057434745132923126, -0.19065742194652557, 0.09357957541942596, 0.0878753513097763, 0.017545146867632866, 0.0381598100066185, -0.2919851839542389, -0.32429173588752747], [-0.09731418639421463, 0.013446904718875885, 0.17557525634765625, 0.11417070776224136, -0.08117049187421799, 0.00182274729013443, -0.13825128972530365, -0.1501748114824295, -0.34733667969703674, -0.07453446835279465], [-1.9932572841644287, -0.4936356544494629, -0.06379438936710358, 0.860761284828186, -0.05866300314664841, -0.42313942313194275, 0.8137494325637817, 0.14232727885246277, -0.8588057160377502, -1.9933514595031738], [0.06251105666160583, 0.0734298825263977, 0.10695421695709229, -0.047847554087638855, -0.06772123277187347, -0.20840971171855927, -0.2105582356452942, 0.02634580433368683, -0.030267074704170227, -0.314378947019577], [0.32768768072128296, -1.1677192449569702, 0.20756381750106812, -0.23723211884498596, -0.2551850974559784, -0.42651474475860596, -0.7449042201042175, 0.1802366077899933, -0.020339548587799072, -0.1710391640663147], [-0.06544528901576996, 0.15612664818763733, -0.005247987806797028, -0.30545926094055176, -0.24469193816184998, -0.11130324006080627, -0.09009870141744614, 0.12982629239559174, 0.007904581725597382, -0.46189430356025696], [-0.12512996792793274, 0.20161938667297363, -0.05417252331972122, -0.1907806247472763, 0.024486221373081207, -0.23722371459007263, -0.21608923375606537, -0.2808612883090973, 0.11278858780860901, -0.17626598477363586]], "net.0.bias": [-0.5030251145362854, -0.4203261137008667, -0.3247760534286499, -0.3032209277153015, -0.1945364773273468, -0.24264001846313477, -0.09733209758996964, -0.38724708557128906, -0.38110747933387756, -0.4078563451766968, -0.33370813727378845, -1.3835830688476562, -0.618615984916687, -0.6890091300010681, -0.19514869153499603, -0.565441906452179], "net.2.weight": [[-0.09933951497077942, -0.09247249364852905, -0.006468743085861206, -0.20819738507270813, 0.033229462802410126, -0.055851198732852936, -0.2490113377571106, -0.20782455801963806, -0.0971064567565918, -0.19957438111305237, -0.1474309265613556, -0.2517637610435486, -0.10674154758453369, -0.16690772771835327, -0.21117481589317322, 0.042064398527145386], [0.4451355040073395, -0.0659436583518982, -0.20407530665397644, -0.4324060082435608, -0.005978643894195557, -0.0995345264673233, 0.017934471368789673, 0.12555068731307983, -0.02087801694869995, -0.12536685168743134, -0.1159682497382164, -0.06892471015453339, -0.02783617377281189, 0.045024216175079346, 0.03831486403942108, 0.022185251116752625], [-0.0889221727848053, 0.19469952583312988, -0.1661168336868286, -0.6262858510017395, -0.3310560882091522, 0.05793549120426178, 1.0955641269683838, -0.03763115406036377, -0.10074977576732635, -0.10355624556541443, -0.01368878036737442, -0.3807193636894226, 0.03981032967567444, -0.18074190616607666, -0.10307060927152634, -0.0416698232293129], [-0.17134645581245422, -0.11345010995864868, -0.14295634627342224, 0.025766603648662567, 0.20734423398971558, -0.10720301419496536, -0.18191973865032196, 0.05163457244634628, 0.03535502403974533, -0.17934289574623108, 0.20076002180576324, -0.2691229581832886, -0.3101361393928528, -0.2075393795967102, 0.26681196689605713, 0.02204267680644989], [0.12942412495613098, 0.004433557391166687, -0.04760423302650452, 0.0134829580783844, 0.10451200604438782, 0.08237144351005554, -0.23099780082702637, -0.2741018235683441, 0.185614675283432, 0.22829729318618774, 0.2645913362503052, -0.08254077285528183, -0.08529602736234665, 0.03955184668302536, -0.025111131370067596, -0.12161868810653687], [0.20174837112426758, -0.2181912660598755, 0.20627743005752563, -0.40470820665359497, -0.02346685528755188, 0.09227550774812698, 0.005101703107357025, -0.14619719982147217, 0.14772596955299377, -0.22048741579055786, -0.19868230819702148, -0.322671115398407, -0.079972043633461, -0.057487547397613525, -0.08866597712039948, -0.23451709747314453], [0.25128424167633057, -0.20212998986244202, 0.16809546947479248, -0.14092984795570374, -0.04895848035812378, -0.2287394404411316, -0.017616070806980133, 0.07831451296806335, 0.20508360862731934, -0.06731507182121277, 0.07739957422018051, -0.4482807219028473, 0.07399001717567444, -0.201106995344162, -0.021178752183914185, -0.32270005345344543], [-0.013550996780395508, 0.10950794816017151, 0.32739824056625366, -0.1740083247423172, -0.1746801733970642, 0.148924320936203, 0.02701108157634735, 0.034814752638339996, 0.10572367906570435, 0.2630820870399475, -0.33404773473739624, -0.08227305859327316, -0.694899320602417, -0.22429931163787842, 0.10438969731330872, -0.4579356908798218], [0.07848909497261047, -0.18494832515716553, 0.07316970825195312, -0.12539666891098022, 0.03666573762893677, -0.22791790962219238, -0.024527691304683685, 0.19826245307922363, 0.013455897569656372, -0.19122058153152466, 0.08626604080200195, -0.18944984674453735, 0.12664228677749634, 0.0717901885509491, 0.11959996819496155, -0.1833488643169403], [0.14223048090934753, -0.07694922387599945, 0.006982594728469849, 0.00862998515367508, -0.08148086071014404, -0.07706472277641296, -0.2263198345899582, 0.14243751764297485, 0.10006554424762726, -0.16880911588668823, -0.3427565097808838, -0.491497278213501, -0.17680343985557556, 0.1714111864566803, -0.16642650961875916, -0.23510140180587769], [-0.02978457510471344, -0.05486378073692322, 0.013692289590835571, 0.043258704245090485, 0.05998695641756058, 0.2917925715446472, 0.07527883350849152, -0.1341034471988678, -0.24980832636356354, 0.10007233917713165, 0.2858845591545105, 0.07261216640472412, 0.2372712641954422, 0.025044076144695282, 0.277174174785614, -0.2122991681098938], [-0.026176154613494873, 0.18763110041618347, 0.052374571561813354, -0.163183331489563, -0.01286972314119339, -0.21267101168632507, -0.006829261779785156, -0.24105212092399597, 0.15561413764953613, -0.2213946431875229, -0.017681702971458435, 0.038812704384326935, -0.14437395334243774, 0.00498335063457489, 0.1355697214603424, -0.20042487978935242], [-0.1676318645477295, 0.1287429928779602, 0.019681453704833984, -0.3717680871486664, -0.010833971202373505, -0.3028672933578491, -0.1381305307149887, -0.07083216309547424, -0.0969993844628334, 0.213803231716156, 0.11834240704774857, -0.32587867975234985, 0.2856060266494751, 0.10913784056901932, 0.03439238667488098, 0.1593846082687378], [0.0520358681678772, 0.18711230158805847, -0.16419151425361633, -0.04477349668741226, 0.2272404134273529, 0.08390584588050842, 0.08095697313547134, -0.2330869436264038, -0.20941585302352905, -0.16548970341682434, 0.17447692155838013, -0.20099277794361115, 0.06184956431388855, -0.13047535717487335, 0.17660512030124664, -0.2100118100643158], [-0.11915943026542664, 0.24688506126403809, -0.10813307762145996, -1.016218900680542, 0.21216550469398499, 0.23021426796913147, 0.14266648888587952, -0.12199492752552032, 0.13291943073272705, -0.2617635726928711, -0.10404611378908157, -0.11191046983003616, 0.43348366022109985, 0.47760361433029175, -0.711625337600708, 0.5518856048583984], [-0.011157453060150146, -0.19342392683029175, 0.3318639099597931, -0.6662331819534302, -0.00022258609533309937, 0.1755850613117218, 0.056055642664432526, 0.12142932415008545, -0.14668811857700348, 0.12679386138916016, 0.25950950384140015, -0.23738431930541992, -0.12091724574565887, -0.24628978967666626, -0.5083082914352417, -0.005055636167526245]], "net.2.bias": [-0.08843088895082474, -0.1902385801076889, -0.0008107200264930725, -0.41884177923202515, -0.5493972301483154, -0.3003069758415222, -0.0049568116664886475, -0.5687788128852844, -0.4118385910987854, -0.5344642400741577, -1.0734717845916748, -0.47233617305755615, -0.27398496866226196, -0.44554629921913147, -0.7793225049972534, -0.36526036262512207], "net.4.weight": [[-0.0829530730843544, -0.06937097012996674, 2.5005292892456055, -0.3041488528251648, 0.03869394212961197, 0.060032881796360016, 0.30936509370803833, -0.3282015025615692, 0.08409177511930466, -0.09810781478881836, -0.8378808498382568, -0.1577633023262024, 0.013140790164470673, 0.030037231743335724, -0.08905293047428131, -0.07584243267774582], [-0.04837123304605484, -0.06520165503025055, 3.1030991077423096, -0.1038382276892662, -0.3451162576675415, 0.03217078000307083, -0.3512085974216461, 0.10833871364593506, -0.026223257184028625, -0.0939541906118393, -0.09483014792203903, -0.05661232769489288, -0.25266051292419434, -0.1464095115661621, 0.6889470815658569, 0.09714116901159286], [-0.054792821407318115, 0.11927035450935364, 1.9015312194824219, -0.011533088982105255, 0.037189118564128876, 0.41839805245399475, 0.20260146260261536, -0.09661088138818741, 0.06400835514068604, -0.00769120454788208, -2.2163045406341553, -0.05789367854595184, -0.05692848563194275, 0.1415448784828186, 0.0034107565879821777, 0.06599143892526627], [-0.12892022728919983, 0.3129911422729492, 0.04975688457489014, 0.16959509253501892, 0.1353793442249298, 0.0528189092874527, 0.03871326148509979, -0.11012891680002213, -0.05788480490446091, 0.3390449285507202, 0.1588522493839264, -0.24328795075416565, 0.0667017251253128, 0.7347179055213928, 0.23569275438785553, 0.2532286047935486], [-0.2993869185447693, -0.13351896405220032, 0.11279985308647156, 0.33530038595199585, -0.037817418575286865, 0.18226851522922516, -0.09914766252040863, 0.010838896036148071, 0.25584113597869873, 0.046383701264858246, 0.5663678646087646, -0.1416320651769638, -0.04115341603755951, 0.018239058554172516, -0.3789806365966797, 0.14301753044128418]], "net.4.bias": [-1.307080626487732, -1.1351135969161987, -0.24355098605155945, -0.28475502133369446, 0.1916237771511078]}, "starting_cards": [0, 1, 2, 3, 4], "hidden_sizes": [16, 16]}}