{"class": "DQNAgent", "payload": {"model_state_dict": {"net.0.weight": [[-0.8325490951538086, -0.6146137118339539, 0.49771440029144287, -0.008767694234848022, -0.24883949756622314, -0.7928698062896729, 0.26430588960647583, -0.9069318771362305], [0.17507804930210114, -0.11138740181922913, 0.21056120097637177, -0.4589517116546631, 0.013502417132258415, -0.1762874573469162, -0.07346421480178833, -0.054455891251564026], [-1.6512378454208374, -0.9583101272583008, -1.2599021196365356, 1.0569696426391602, -0.2777479290962219, -0.040094465017318726, -2.6244056224823, 0.37524843215942383], [-0.2603514492511749, 0.13861608505249023, 0.04422392696142197, -0.060930054634809494, 0.25600960850715637, -0.15605510771274567, 0.05898822098970413, -0.22109118103981018], [0.025369323790073395, -0.15534470975399017, 0.09747867286205292, -0.488267183303833, 0.08884888142347336, -0.22658374905586243, 0.05846308171749115, -0.7337309122085571], [-0.12132425606250763, 0.25903964042663574, 0.13793019950389862, -0.0953671932220459, 0.11065486073493958, 0.13016311824321747, -0.1068011224269867, -0.2852540910243988], [-0.2728441655635834, 0.013034887611865997, -0.13570034503936768, 0.18472114205360413, -0.2686912417411804, 0.3120175898075104, 0.01118343323469162, -0.22132480144500732], [-0.1492735892534256, -0.060816533863544464, -0.3474630117416382, -0.39958468079566956, -0.13211211562156677, 0.11252925544977188, -0.41123729944229126, 0.2646499276161194], [0.37866464257240295, -0.5541850328445435, -0.00891023874282837, -0.3013516068458557, -0.056385528296232224, -0.1620101034641266, -0.21679773926734924, -0.07265065610408783], [0.45297858119010925, -0.20336738228797913, -0.2244289517402649, -0.06480176746845245, 0.09111149609088898, -0.32461458444595337, -0.23142604529857635, -0.5435870885848999], [2.938250780105591, -4.751724720001221, -0.028448767960071564, 0.09751468896865845, -0.039327096194028854, 0.885158121585846, -0.6989140510559082, -1.6475844383239746], [0.13174889981746674, -0.5353702306747437, -0.06956224143505096, 0.016068972647190094, 0.04758935421705246, 0.01015667337924242, 0.12823183834552765, -0.07843337208032608], [0.01961606927216053, -0.0455317348241806, -0.3028407394886017, -0.23924914002418518, -0.10880056768655777, 0.13821262121200562, 0.10810420662164688, 0.03902099281549454], [0.021051742136478424, -0.2865935266017914, -0.3545696437358856, -0.25609728693962097, -0.2765311896800995, -0.06015515327453613, -0.4160894453525543, -0.057512663304805756], [-0.05957946181297302, -0.32030344009399414, -0.2656233310699463, -0.114097461104393, -0.3200869858264923, -0.3880915939807892, -0.3776094913482666, -0.3572028875350952], [0.08170036971569061, 0.09390555322170258, 0.1431851089000702, -0.12987935543060303, 0.14789025485515594, -0.321196585893631, -0.4236086905002594, 0.05306456983089447]], "net.0.bias": [-0.19843491911888123, -0.4396721124649048, -1.057232141494751, -0.17559704184532166, -0.05601630359888077, -0.04151114821434021, -0.3615838289260864, -0.22953206300735474, -0.35020512342453003, -0.086568683385849, -2.034341335296631, -0.3556995987892151, -0.3613651692867279, -0.213686004281044, -0.08229032903909683, -0.42974740266799927], "net.2.weight": [[-0.33534836769104004, -0.008963793516159058, -1.1712273359298706, 0.18166419863700867, -0.15660469233989716, -0.2070733606815338, -0.09892392158508301, 0.4384535849094391, 0.03623128682374954, -0.17176507413387299, -0.02251831442117691, -0.02942335605621338, -0.09177640080451965, -0.022045940160751343, -0.031654730439186096, 0.03971410542726517], [0.33950135111808777, -0.27418169379234314, -1.0777004957199097, 0.07636332511901855, -0.6166049242019653, 0.04534733295440674, -0.15641659498214722, -0.22708791494369507, -0.14317333698272705, -0.1645229160785675, 0.05206269025802612, 0.0920129120349884, -0.09376752376556396, -0.3283989429473877, 0.16188189387321472, 0.10637658089399338], [-0.29933997988700867, 0.10752695798873901, -0.3064676821231842, -0.10819736123085022, 0.13322937488555908, 0.04414808750152588, -0.049011990427970886, -0.1078246533870697, 0.10289297252893448, -0.39957237243652344, -0.047431349754333496, -0.05176466703414917, -0.10674154758453369, -0.0669076144695282, -0.2111683487892151, 0.24206386506557465], [0.6450451016426086, -0.1659436821937561, 0.5957685708999634, -0.13260766863822937, 0.8939297199249268, -0.19952765107154846, 0.4177137017250061, 0.22536695003509521, -0.4208773374557495, 0.2745364308357239, -0.2159784734249115, 0.1310373842716217, 0.17213201522827148, 0.544948160648346, 0.4381431043148041, -0.17792436480522156], [-0.0889190062880516, 0.09469988197088242, -0.1661168336868286, 0.07365018129348755, -0.33105605840682983, 0.15793508291244507, 0.19260740280151367, -0.03763115406036377, -0.3007493317127228, -0.10355624556541443, -0.013689123094081879, -0.18071961402893066, -0.0601884126663208, -0.18074151873588562, -0.20307022333145142, -0.04166988283395767], [0.028552331030368805, 0.28652775287628174, -0.14319199323654175, -0.074202761054039, 0.6070429086685181, -0.2072022259235382, -0.08191903680562973, 0.15166357159614563, 0.5353530645370483, 0.4206360876560211, -0.29915663599967957, 0.130859375, 0.18967148661613464, 0.19241252541542053, 0.5670973658561707, 0.02209511399269104], [0.12942412495613098, 0.10443353652954102, -0.14760415256023407, 0.21348288655281067, 0.0045120492577552795, 0.08237144351005554, -0.23099780082702637, -0.17410194873809814, 0.185614675283432, 0.1282973289489746, -0.03540853410959244, 0.017459355294704437, -0.2852957546710968, -0.16044804453849792, -0.12511128187179565, -0.12161868810653687], [0.0017485320568084717, -0.2181912660598755, 0.006277747452259064, -0.1047094464302063, -0.12346677482128143, 0.19227421283721924, 0.205093652009964, -0.14619719982147217, 0.14772596955299377, -0.320487380027771, -0.29868125915527344, -0.12267577648162842, 0.0200270414352417, -0.15748749673366547, -0.08868099004030228, -0.23451709747314453], [0.451252281665802, -0.20212998986244202, 0.468081533908844, -0.1409209817647934, 0.9511225819587708, -0.12873998284339905, -0.12013599276542664, -0.021697260439395905, 0.005083844065666199, 0.23268058896064758, -0.22260090708732605, -0.24827925860881805, 0.07399101555347443, 0.09888623654842377, 0.7787935733795166, -0.6227077841758728], [-0.11355089396238327, 0.20950794219970703, 0.027398452162742615, 0.026005201041698456, -0.1746828705072403, 0.048924654722213745, 0.12701964378356934, 0.03481291979551315, 0.20572173595428467, -0.13687443733215332, -0.13391703367233276, 0.21774087846279144, -0.09489317983388901, -0.024301111698150635, 0.1043957993388176, -0.1577962040901184], [-0.021510832011699677, -0.18494832515716553, -0.026830658316612244, -0.025400057435035706, 0.03666488826274872, -0.22791790962219238, -0.024528376758098602, 0.09826181083917618, 0.013455897569656372, -0.3912203907966614, -0.01373395323753357, -0.18945039808750153, 0.026642218232154846, 0.07179001718759537, 0.01959986239671707, -0.18334953486919403], [-0.35776814818382263, 0.12301445007324219, 0.006980285048484802, 0.20862910151481628, -0.18147242069244385, -0.1770649552345276, 0.17367233335971832, 0.34246736764907837, 0.3000643849372864, -0.16883717477321625, -0.04284941405057907, 0.1085096076130867, 0.02319638431072235, 0.27141323685646057, -0.06615152209997177, 0.16488222777843475], [-0.029784053564071655, 0.1451379358768463, -0.08630752563476562, -0.05705401301383972, -0.04001322388648987, -0.008206218481063843, -0.1246759295463562, -0.034085869789123535, -0.14980855584144592, -0.1998976767063141, -0.014026716351509094, 0.1726093888282776, 0.23727700114250183, 0.02504444122314453, -0.02245394140481949, -0.012298792600631714], [0.2738253176212311, -0.012368626892566681, -0.2476102113723755, -0.06317704916000366, -0.012869633734226227, -0.21267101168632507, -0.10682293772697449, -0.24104034900665283, -0.14438515901565552, 0.07860735058784485, -0.7176805734634399, 0.03881506621837616, 0.05562632530927658, 0.0049861520528793335, 0.3355734348297119, -0.6004176139831543], [-0.2676311135292053, 0.1287429928779602, -0.08031919598579407, 0.02822272479534149, 0.08916420489549637, -0.20286476612091064, -0.038129642605781555, -0.17083227634429932, -0.1969892978668213, -0.08618797361850739, 0.01834268867969513, -0.1258692443370819, 0.08561106026172638, 0.10913749039173126, 0.034432895481586456, 0.15938296914100647], [-0.6479583978652954, 0.18711203336715698, -0.364177405834198, 0.05522921681404114, -0.07273317128419876, 0.08390584588050842, 0.08095693588256836, -0.533075213432312, -0.20941615104675293, -0.26548880338668823, -0.025519348680973053, -0.3009903132915497, -0.03815102577209473, -0.23047587275505066, -0.22334034740924835, -0.010015510022640228]], "net.2.bias": [-0.019421368837356567, -0.45312103629112244, -0.20813310146331787, -0.5162495970726013, -0.18783143162727356, -0.2698235511779785, -0.25732865929603577, -0.3219940662384033, -0.8670669794082642, -0.3617643415927887, -0.4040412902832031, -0.31192025542259216, -0.16651678085327148, -0.3223924934864044, -0.5116508603096008, -0.14810428023338318], "net.4.weight": [[-3.7111783027648926, -0.2934204936027527, 0.23186421394348145, -0.6662316918373108, -0.00022149085998535156, -0.12441160529851913, 0.15606045722961426, -0.17856989800930023, -0.5466943383216858, 0.12679359316825867, 0.15951141715049744, -0.03738667815923691, 0.07908222079277039, -0.5462896823883057, -0.20831352472305298, 0.1949472725391388], [1.0115315914154053, 0.3097611665725708, -0.0008004754781723022, -0.3188301920890808, -0.14939723908901215, -0.1003073900938034, -0.004960179328918457, 0.031227797269821167, -0.5118395090103149, 0.06552754342556, 0.02644658088684082, -0.17233726382255554, 0.22601532936096191, -0.5455430746078491, 0.020651310682296753, -0.06525980681180954], [0.01703893393278122, -0.1693682074546814, 0.20052790641784668, 0.29585129022598267, 0.23869431018829346, 0.060032665729522705, 0.20936578512191772, -0.028265036642551422, -0.41590648889541626, -0.09810797870159149, -0.2378794550895691, -0.15776140987873077, 0.01314021646976471, -0.36996251344680786, 0.010963551700115204, 0.22415801882743835], [-1.6484949588775635, 0.6347983479499817, 0.10309986770153046, 0.29615235328674316, -0.14511674642562866, 0.33213573694229126, 0.14879122376441956, -0.09166167676448822, -0.22626549005508423, -0.09395721554756165, -0.19483357667922974, 0.6433873176574707, 0.14733436703681946, -0.04640650004148483, 0.18894734978675842, 0.8971367478370667]], "net.4.bias": [-0.254767507314682, -0.48083990812301636, -0.2985721826553345, -0.2118910253047943]}, "starting_cards": [0, 1, 2, 3], "hidden_sizes": [16, 16]}}