{"class": "DQNAgent", "payload": {"model_state_dict": {"net.0.weight": [[-0.029113011434674263, -0.1919557899236679, 0.016289442777633667, -0.09728489816188812, -0.47256574034690857, -0.26195114850997925, 0.05751761421561241, -0.2745260000228882, -0.09340235590934753, -0.17073991894721985], [0.027774229645729065, -0.23161447048187256, -0.2379227578639984, 0.02120811678469181, -0.2262658178806305, -0.11982160806655884, -0.29582861065864563, -0.3915967643260956, 0.21475940942764282, -0.21739229559898376], [-0.24842530488967896, -0.10697577893733978, -0.11127270013093948, -0.0038207024335861206, -0.23286542296409607, 0.21342375874519348, 0.039555083960294724, -0.05449749901890755, -0.02101767063140869, -0.38957956433296204], [0.05276067182421684, -0.608307957649231, 0.1121334582567215, -0.12061761319637299, 0.01607246696949005, -0.16839197278022766, 0.07946868240833282, -0.27377763390541077, -0.01882416009902954, -0.7090563774108887], [-1.6085155010223389, -0.2683088779449463, -1.126624584197998, 0.16469885408878326, 0.09897719323635101, 0.8664262890815735, -1.095520257949829, -1.255138874053955, -0.7440392374992371, -1.0594571828842163], [-0.03193122148513794, -0.08478008210659027, -0.24032476544380188, 0.029077351093292236, 0.0994456335902214, -0.26907289028167725, -0.1335146278142929, -0.054393790662288666, -0.22133761644363403, -0.5179566144943237], [-0.11816467344760895, -0.05990816652774811, -0.27837908267974854, -0.013287842273712158, 0.15980249643325806, -0.22735045850276947, 0.26035815477371216, 0.08823294937610626, -0.30043265223503113, -0.2160215526819229], [-0.42558199167251587, -0.04665309190750122, 0.06571285426616669, -0.16356971859931946, -0.021851181983947754, 0.031481072306632996, 0.08149169385433197, -0.8614585995674133, -0.367550790309906, -0.5573141574859619], [0.3025016486644745, -0.13575930893421173, -0.02532096579670906, -0.27047887444496155, -0.2851743698120117, 0.005174800753593445, -0.26728540658950806, 0.13624846935272217, 0.29672500491142273, -0.2999647259712219], [0.027224302291870117, -0.14618322253227234, -0.20743320882320404, -0.2409140169620514, 0.04358094930648804, 0.28761720657348633, -0.23245327174663544, -0.11183865368366241, -0.341983824968338, -0.3745483160018921], [-0.09731418639421463, -0.03693768382072449, 0.2755749225616455, 0.2137860208749771, 0.01882915385067463, 0.10143804550170898, -0.13825128972530365, -0.05017516389489174, -0.24733702838420868, -0.12491904199123383], [-0.19327625632286072, 0.056334227323532104, 0.036153167486190796, -0.08928526937961578, -0.058695316314697266, -0.17316630482673645, -0.28629449009895325, -0.25767698884010315, -0.1588587462902069, 0.056596189737319946], [0.1625109314918518, -0.07656694948673248, 0.056954383850097656, -0.09784619510173798, 0.13227707147598267, -0.10840220749378204, -0.11055897921323776, -0.0236540287733078, 0.01972578465938568, -0.4643757939338684], [0.1276884824037552, -0.31761667132377625, 0.057668089866638184, -0.2871283292770386, -0.055081807076931, -0.026412490755319595, -0.04490546137094498, 0.03034108877182007, -0.3702343702316284, -0.12093484401702881], [-0.21544526517391205, 0.006090492010116577, 0.44471418857574463, -0.4554947018623352, -0.5447295308113098, -0.26133856177330017, -0.0900990217924118, -0.020211175084114075, 0.057866841554641724, -0.5119304656982422], [-0.12512996792793274, 0.05162563920021057, 0.045828141272068024, -0.09077472984790802, 0.22448745369911194, -0.03721792995929718, -0.11608898639678955, -0.28086087107658386, 0.2127898782491684, -0.32625964283943176]], "net.0.bias": [-0.45302027463912964, -0.47032463550567627, -0.4747759699821472, -0.40340733528137207, -0.39454877376556396, -0.44264116883277893, -0.44785311818122864, -0.5372471213340759, -0.43110066652297974, -0.4581129252910614, -0.4340927004814148, -0.38361191749572754, -0.368613600730896, -0.5389049053192139, -0.2951829433441162, -0.36543548107147217], "net.2.weight": [[-0.09933951497077942, -0.09247249364852905, 0.24352969229221344, -0.1081901490688324, -0.11680133640766144, 0.29414689540863037, 0.10098244249820709, -0.4577930271625519, 0.15289273858070374, 0.050415247678756714, 0.4525671601295471, 0.19823481142520905, -0.35674282908439636, -0.21690772473812103, -0.36005744338035583, 0.6420631408691406], [0.14513525366783142, -0.0659436583518982, -0.35407495498657227, -0.48240333795547485, -0.2559746205806732, -0.4495261311531067, 0.4679304361343384, 0.12555068731307983, -0.02087801694869995, -0.025368183851242065, -0.2659616470336914, -0.018927112221717834, -0.2778354287147522, 0.045024216175079346, -0.11168411374092102, -0.12781424820423126], [0.011080175638198853, 0.19469952583312988, -0.41606077551841736, -0.1763492375612259, -0.48105573654174805, -0.09206388890743256, 0.4426666498184204, -0.03763115406036377, -0.2007497251033783, -0.10355624556541443, -0.16368824243545532, -0.4307191073894501, -0.3101341724395752, -0.08074170351028442, -0.3530699610710144, -0.09166963398456573], [0.07864665985107422, -0.1634712815284729, -0.14295634627342224, 0.2757929563522339, 0.9571742415428162, 0.042796775698661804, -0.43191659450531006, 0.90165776014328, 0.38535264134407043, -0.17932435870170593, 0.10083310306072235, 0.08090654015541077, -0.21012970805168152, -0.10752087831497192, 0.4172426760196686, 0.022096186876296997], [0.22942408919334412, 0.10443353652954102, -0.04760423302650452, 0.21348288655281067, -0.14548785984516144, 0.08237144351005554, -0.23099780082702637, -0.17410194873809814, 0.185614675283432, 0.22829729318618774, 0.06459137797355652, 0.1174592673778534, -0.18529605865478516, -0.06044808030128479, -0.025111347436904907, -0.12161868810653687], [0.20174837112426758, -0.2181912660598755, -0.04372219741344452, -0.1047094464302063, -0.02346685528755188, 0.19227421283721924, -0.04490329325199127, -0.14619719982147217, 0.14772596955299377, -0.22048741579055786, -0.19868230819702148, -0.12267577648162842, -0.22997258603572845, -0.057487547397613525, 0.011318862438201904, -0.23451709747314453], [0.15128576755523682, -0.20212998986244202, -0.08187149465084076, -0.29093021154403687, -0.19895802438259125, -0.3787386119365692, 0.329889178276062, 0.07831451296806335, 0.20508360862731934, -0.06731507182121277, -0.07259970903396606, -0.3982812464237213, -0.17597804963588715, -0.201106995344162, -0.07117903232574463, -0.47269970178604126], [-0.013550996780395508, 0.20950794219970703, 0.22739940881729126, -0.3239823877811432, -0.42468082904815674, -0.20107543468475342, -0.27297306060791016, 0.13481470942497253, 0.20572173595428467, 0.06312528252601624, -0.13391713798046112, -0.03225788474082947, 0.005107402801513672, 0.07569926977157593, -0.04560382664203644, -0.15779389441013336], [0.07848909497261047, 0.06504850089550018, 0.07316970825195312, -0.1253964900970459, 0.03666575253009796, -0.22791790962219238, 0.0754723846912384, 0.19826309382915497, 0.013455897569656372, -0.19122058153152466, 0.08626604080200195, -0.18944984674453735, 0.37664222717285156, 0.42178982496261597, 0.3695998191833496, -0.1833488643169403], [0.14223048090934753, -0.12698398530483246, -0.24301645159721375, 0.10862576961517334, -0.2316088080406189, 0.07293245196342468, -0.3763309419155121, 0.2424650490283966, 0.20006480813026428, 0.13116145133972168, 0.35714757442474365, 0.05850882828235626, -0.42680326104164124, 0.17141103744506836, 0.13364478945732117, 0.6648823618888855], [-0.029784053564071655, 0.1451379358768463, -0.08630752563476562, -0.30705201625823975, -0.29001349210739136, -0.2582065463066101, -0.6246728897094727, -0.034085869789123535, -0.14980855584144592, -0.09990042448043823, 0.08597199618816376, -0.07739084959030151, 0.2372775822877884, 0.27504369616508484, -0.2725512683391571, -0.012298613786697388], [-0.026176154613494873, 0.4376307725906372, 0.1523744761943817, 0.28681257367134094, 0.13707633316516876, 0.28732794523239136, 0.09316746890544891, 0.008945256471633911, 0.15561413764953613, -0.12139496207237244, 0.2323179543018341, 0.7388120889663696, -0.04437395930290222, 0.1049833595752716, 0.9854449033737183, 0.14957387745380402], [-0.1676318645477295, 0.1287429928779602, 0.019681453704833984, -0.3217669427394867, -0.16083349287509918, -0.45286333560943604, 0.06186944246292114, -0.07083216309547424, -0.1969892978668213, 0.11381113529205322, -0.03165684640407562, -0.3758678734302521, -0.06439167261123657, -0.040862128138542175, -0.015569925308227539, -0.09061463177204132], [0.0520358681678772, 0.18711230158805847, -0.16419151425361633, -0.19477058947086334, -0.022759467363357544, 0.08390584588050842, 0.08095693588256836, -0.48308637738227844, -0.20941585302352905, -0.16548970341682434, 0.17447680234909058, -0.20099037885665894, 0.061848729848861694, -0.030477851629257202, -0.17339196801185608, -0.010020971298217773], [-0.11915943026542664, 0.046888649463653564, -0.3581322133541107, -0.1162293404340744, -0.13784156739711761, 0.23020078241825104, -0.30732613801956177, -0.021994829177856445, 0.23291897773742676, -0.1617640256881714, -0.20405671000480652, 0.08807064592838287, -0.3165169060230255, 0.07760649919509888, -0.21165688335895538, 0.15188786387443542], [-0.011157453060150146, -0.19342392683029175, -0.018135279417037964, -0.4162355661392212, -0.35022085905075073, -0.2744106650352478, 0.40605440735816956, 0.12142932415008545, -0.04668968915939331, -0.02320408821105957, -0.09048765897750854, -0.08738894760608673, -0.17091727256774902, -0.24628978967666626, -0.4583131968975067, -0.05505289137363434]], "net.2.bias": [-0.13843172788619995, -0.14023953676223755, -0.1507868766784668, -0.7688555717468262, -0.4993966817855835, -0.25030723214149475, -0.054953038692474365, -0.21877212822437286, -0.4618379473686218, -0.3344765901565552, -0.27355363965034485, -0.4223376512527466, -0.3739844560623169, -0.49554333090782166, -0.47932782769203186, -0.2652592658996582], "net.4.weight": [[-0.23296360671520233, -0.0693708062171936, 0.10052791237831116, 0.245845764875412, 0.23869431018829346, 0.16003277897834778, 0.20936578512191772, 0.0717308521270752, 0.08409219980239868, -0.34809964895248413, -0.23787996172904968, -0.40776222944259644, 0.013140648603439331, 0.1300373375415802, 0.16096308827400208, 0.1741562932729721], [-0.14836956560611725, -0.11520306766033173, -0.04689788818359375, 0.5461583137512207, -0.24511629343032837, -0.11786361038684845, -0.10120871663093567, -0.1916615068912506, 0.023776501417160034, 0.15604284405708313, 0.0551663339138031, 0.24338765442371368, -0.10266555845737457, -0.1464068591594696, -0.2610480785369873, -0.05286069214344025], [0.44520705938339233, -0.13072964549064636, -0.24846775829792023, 0.8384618759155273, -0.11280800402164459, -0.031601548194885254, -0.24739842116832733, -0.19661065936088562, 0.06400835514068604, 0.09231071174144745, 0.13369640707969666, 0.09210671484470367, 0.04307153820991516, 0.19154483079910278, -0.3965802788734436, -0.08400867879390717], [-0.47891631722450256, 0.3629924952983856, 0.29976004362106323, 0.1695895493030548, 0.23537933826446533, 0.402817964553833, 0.4887126386165619, -0.16015246510505676, 0.0921139270067215, -0.3109555244445801, -0.09114861488342285, -0.1432882696390152, 0.16670167446136475, 0.1347186267375946, 0.13570047914981842, 0.4032291769981384], [0.5506120324134827, -0.033518850803375244, 0.21297362446784973, 0.23530171811580658, -0.037816643714904785, 0.18226870894432068, -0.09914770722389221, 0.010839015245437622, 0.40584105253219604, -0.40361565351486206, 0.3163681626319885, -0.3916324973106384, 0.00884661078453064, -0.08180275559425354, -0.07897639274597168, 0.043017297983169556]], "net.4.bias": [-0.4546092450618744, -0.4852334260940552, -0.29339268803596497, 0.6152074933052063, 1.7417471408843994]}, "starting_cards": [0, 1, 2, 3, 4], "hidden_sizes": [16, 16], "params": {"epochs": 50, "learning_rate": 0.25, "discount_factor": 1, "epsilon": 0.1, "replay_buffer_capacity": 64, "update_interval": 20, "minibatch_size": 32, "hidden_sizes": [16, 16]}}}