{"class": "DQNAgent", "payload": {"model_state_dict": {"net.0.weight": [[-0.029113011434674263, -0.1919557899236679, 0.26628637313842773, -0.09728489816188812, -0.2225688099861145, -0.26195114850997925, 0.05751761421561241, -0.2745260000228882, 0.15659457445144653, 0.07925700396299362], [0.027773946523666382, -0.48161444067955017, -0.2379230409860611, -0.22879236936569214, 0.023733556270599365, 0.1301775872707367, -0.29582923650741577, -0.39159703254699707, -0.03524056077003479, -0.4673922657966614], [-0.4984252452850342, -0.10697610676288605, -0.3612726628780365, -0.003802940249443054, -0.23286527395248413, 0.213441863656044, -0.21044468879699707, -0.30449745059013367, -0.021017998456954956, -0.3895798921585083], [-0.19723930954933167, -0.6083080768585205, -0.13786636292934418, -0.12061817944049835, 0.5160718560218811, -0.1683923751115799, 0.07946820557117462, -0.27377766370773315, -0.01882416009902954, -0.7090564966201782], [-0.10851570963859558, -0.018307119607925415, 0.1233685165643692, -0.08529900759458542, 0.09897272288799286, 0.11642143875360489, -0.0955258309841156, -0.255139023065567, -0.24403923749923706, -0.059454545378685], [-0.28193116188049316, -0.08478011190891266, -0.24032476544380188, 0.02907632291316986, 0.09944495558738708, -0.019074007868766785, -0.13351529836654663, -0.3043937087059021, -0.47133755683898926, -0.5179566740989685], [-0.6181636452674866, -0.5599064826965332, -0.5283785462379456, -0.26328688859939575, 0.409801721572876, -0.22735093533992767, 0.2603585720062256, -0.41176608204841614, -0.5504317283630371, -0.716019868850708], [-0.17558175325393677, -0.04665306210517883, 0.06571407616138458, -0.163569375872612, -0.2718495726585388, -0.21851734817028046, -0.16850696504116058, -0.3614584803581238, -0.36755049228668213, -0.5573141574859619], [0.05250231921672821, -0.13575930893421173, -0.27532029151916504, -0.5204781889915466, -0.28517454862594604, 0.005174621939659119, -0.5172847509384155, -0.11375086009502411, 0.04672567546367645, -0.2999647259712219], [-0.22277559340000153, -0.14618469774723053, -0.20743468403816223, -0.24091549217700958, 0.2935793697834015, 0.28761720657348633, -0.23245474696159363, -0.1118401288986206, -0.3419853150844574, -0.3745498061180115], [-0.09731418639421463, -0.03693743050098419, 0.2755749225616455, 0.2137860208749771, 0.01882915385067463, 0.10143804550170898, -0.13825128972530365, -0.05017516389489174, -0.24733702838420868, -0.12491878867149353], [-0.19327625632286072, 0.05633445084095001, 0.036153167486190796, 0.16071458160877228, -0.058695316314697266, 0.07683355361223221, -0.28629449009895325, -0.25767698884010315, -0.1588587462902069, 0.056596413254737854], [-0.0874890685081482, -0.07656094431877136, 0.30695411562919617, -0.0978398323059082, 0.13227707147598267, -0.10840220749378204, -0.11055897921323776, -0.02365395426750183, 0.019731804728507996, -0.4643697738647461], [-0.12231141328811646, -0.5676168203353882, 0.05766783654689789, -0.28712859749794006, -0.055081807076931, -0.026412490755319595, -0.2949053645133972, 0.030340835452079773, -0.3702346384525299, -0.37093499302864075], [-0.21544550359249115, 0.006091296672821045, 0.19471478462219238, -0.4554942846298218, -0.04472941532731056, -0.011338401585817337, -0.09009870141744614, -0.020210817456245422, 0.05786693096160889, -0.5119295716285706], [-0.12512996792793274, 0.051625728607177734, 0.045828141272068024, -0.09077472984790802, 0.22448745369911194, -0.03721792995929718, -0.11608898639678955, -0.28086087107658386, 0.2127898782491684, -0.3262595534324646], [-0.20302334427833557, -0.22032496333122253, -0.22477632761001587, -0.15340696275234222, 0.10546264797449112, -0.19263944029808044, -0.19785307347774506, -0.2872460186481476, -0.18110153079032898, -0.20811450481414795], [-0.1840929239988327, 0.11638814955949783, -0.11860758066177368, -0.2889052927494049, -0.04518146812915802, -0.11543586850166321, -0.1256556510925293, -0.11696948111057281, -0.008182385005056858, -0.3868600130081177], [-0.08147676289081573, -0.1941564381122589, -0.18848684430122375, -0.2628795802593231, -0.12283103168010712, -0.2524438500404358, -0.05999643728137016, -0.06547769904136658, -0.38501840829849243, -0.20814141631126404], [-0.14062629640102386, -0.07030121982097626, 0.18358318507671356, -0.08341286331415176, -0.13164649903774261, -0.2939707338809967, -0.007558419369161129, -0.2523847222328186, 0.2756655216217041, -0.09118925034999847], [-0.2764086127281189, -0.5320881009101868, -0.2701915502548218, 0.04228590428829193, -0.03521028533577919, 0.056951627135276794, -0.07504300773143768, -0.09544648230075836, -0.23598434031009674, -0.25372201204299927], [-0.4601229727268219, -0.1568390280008316, -0.2922656834125519, -0.050226300954818726, 0.24363109469413757, -0.04760026931762695, -0.25393062829971313, -0.3809894025325775, -0.14082439243793488, -0.47859418392181396], [-0.32613295316696167, -0.35213103890419006, -0.6303746700286865, -0.04972822964191437, -0.21673822402954102, 0.1094493716955185, -0.43082720041275024, -0.46737539768218994, 0.012271538376808167, -0.5120923519134521], [-0.23011143505573273, -0.05816182494163513, 0.17121124267578125, -0.22682936489582062, 0.12754544615745544, -0.21388743817806244, -0.26579537987709045, -0.13600434362888336, 0.2116500288248062, -0.2220502495765686], [0.0402010977268219, -0.367900550365448, -0.060215119272470474, 0.020036965608596802, 0.13219839334487915, 0.10419254750013351, -0.29219168424606323, -0.47022339701652527, -0.01521390676498413, -0.21122393012046814], [-0.16829745471477509, -0.10142427682876587, -0.23438303172588348, -0.07646144181489944, -0.03176362067461014, -0.15383681654930115, 0.2551937401294708, -0.2759925425052643, 0.010922804474830627, -0.3824479579925537], [-0.029683483764529228, -0.0067901164293289185, 0.25942522287368774, -0.18492645025253296, 0.18686021864414215, -0.2788969576358795, -0.2513154447078705, -0.15517394244670868, 0.02533242665231228, -0.32271653413772583], [-0.23568211495876312, -0.2966442108154297, -0.05863642692565918, -0.5056759119033813, -0.03737364709377289, -0.3017736077308655, -0.18543687462806702, -0.41284409165382385, -0.14899221062660217, 0.09905993938446045], [0.5094156861305237, -1.085143804550171, -0.025605902075767517, -0.437563419342041, -0.6564087271690369, -1.0043820142745972, -0.02380785346031189, -0.531696081161499, -0.7671371698379517, 0.26501214504241943], [-0.46236029267311096, -0.5935863256454468, -0.47095537185668945, -0.43811362981796265, 0.537163496017456, 0.17052945494651794, 0.2602206766605377, -0.420151948928833, -0.9193934202194214, -0.22457578778266907], [0.006460410077124834, 0.09575284272432327, 0.25854289531707764, -0.1995960921049118, 0.09928172081708908, -0.2339431792497635, 0.09255317598581314, -0.15861541032791138, 0.04637889564037323, -0.2882958948612213], [-0.15453411638736725, 0.0007837414741516113, 0.017020514234900475, -0.4918769299983978, 0.10911887139081955, -0.23963721096515656, 0.16019122302532196, -0.03270062804222107, -0.09871666133403778, -0.48192068934440613]], "net.0.bias": [-0.07009054720401764, -0.344397634267807, -0.7411477565765381, -0.3625916838645935, -0.22657661139965057, -0.4739723205566406, -1.1597862243652344, -0.44329655170440674, -0.49693500995635986, -0.33409208059310913, -0.43069133162498474, -0.4922176003456116, -0.4736415147781372, -0.2831801772117615, -0.33069413900375366, -0.04143555462360382, -0.2876739501953125, -0.31641310453414917, -0.35917121171951294, -0.3221679627895355, -0.55061274766922, -0.26038065552711487, -0.6577048897743225, -0.2931153178215027, -0.6894941926002502, -0.37636494636535645, -0.39125221967697144, -0.2816649079322815, -0.44986289739608765, -0.9683173894882202, -0.028525272384285927, -0.5155574679374695], "net.2.weight": [[-0.2685089707374573, -0.11732438206672668, -0.1422477811574936, -0.22396636009216309, -0.32980793714523315, -0.15038111805915833, -0.18411853909492493, -0.4204493761062622, -0.13996390998363495, -0.33583882451057434, -0.012502756901085377, 0.16886597871780396, -0.03137712553143501, -0.175765261054039, -0.0834265947341919, -0.32101115584373474, -0.11853362619876862, -0.158964604139328, 0.01391688920557499, -0.05074748024344444, 0.06304968148469925, -0.14344705641269684, 0.04374830052256584, -0.05008590221405029, -0.13929246366024017, 0.08047662675380707, -0.09560835361480713, -0.33900219202041626, -0.11875489354133606, -0.10211533308029175, 0.16576679050922394, 0.11270206421613693], [0.03679491579532623, -0.11764085292816162, -0.36602991819381714, 0.2890610694885254, 0.6606810092926025, -0.19066433608531952, 0.05733424425125122, 0.08518251776695251, 0.10190476477146149, 0.13297683000564575, 0.3733733892440796, 0.10787820816040039, 0.2937331795692444, 0.7284446358680725, 0.30416953563690186, 0.49291378259658813, 0.16574129462242126, 0.033155281096696854, 0.17353524267673492, 0.1678190380334854, 0.5792567133903503, -0.08720915019512177, 0.20946241915225983, 0.23444703221321106, 0.6646912097930908, 0.13561522960662842, 0.10571944713592529, 0.06228154897689819, 0.202964648604393, 0.05490422248840332, -0.14966048300266266, 0.6066166758537292], [-0.257889062166214, -0.3867708444595337, -0.08603796362876892, -0.3675461411476135, -0.3208637535572052, -0.017261704429984093, -0.13964849710464478, -0.16413620114326477, -0.28301429748535156, -0.08963222801685333, 0.11279160529375076, 0.11498300731182098, 0.055919572710990906, -0.42415279150009155, -0.3972994089126587, -0.11215148866176605, 0.07888691127300262, -0.17238718271255493, 0.07014461606740952, -0.013315432704985142, -0.17635031044483185, -0.00021737236238550395, 0.13791312277317047, 0.022081386297941208, -0.14979234337806702, 0.11704563349485397, -0.08987759053707123, -0.37185966968536377, -0.16089338064193726, -0.6736222505569458, 0.01461821235716343, 0.1659865528345108], [0.26204589009284973, 0.20095187425613403, -0.17885059118270874, -0.25293397903442383, 0.4187793731689453, 0.3631555438041687, -0.10193882882595062, 0.5507193803787231, 0.05946941673755646, -0.06937167048454285, 0.08179277181625366, 0.138444185256958, 0.2592877745628357, 0.0919514149427414, 0.4370384216308594, 0.19637084007263184, 0.1450854241847992, 0.09531532227993011, 0.3935827612876892, 0.10586144030094147, -0.17329968512058258, 0.34343355894088745, 0.10521282255649567, 0.11447417736053467, 0.3399304747581482, 0.18355916440486908, 0.36222749948501587, 0.422099769115448, 0.8541681170463562, 0.14646638929843903, -0.007815353572368622, 0.1277473121881485], [-0.2887437343597412, -0.1656624674797058, -0.2489037960767746, -0.18744373321533203, -0.152987539768219, 0.15443085134029388, 0.0018395624356344342, -0.38902437686920166, -0.2047388255596161, -0.1847257912158966, -0.08223891258239746, -0.11164739727973938, 0.0304561760276556, -0.29133346676826477, -0.17687618732452393, -0.13262589275836945, -0.16187067329883575, -0.17010152339935303, 0.03518589586019516, 0.11991793662309647, 0.16643832623958588, 0.10805868357419968, 0.16879570484161377, 0.0635317787528038, -0.1116410568356514, -0.04310223087668419, -0.13767406344413757, -0.35131940245628357, -0.13212373852729797, -0.15473595261573792, 0.09595562517642975, 0.10834947228431702], [-0.1409883350133896, -0.27368849515914917, -0.09938696026802063, -0.0836145281791687, -0.026740403845906258, -0.12111619114875793, -0.32008516788482666, 0.007664341013878584, 0.11019634455442429, -0.108622707426548, 0.04692939668893814, -0.10014931857585907, -0.17052116990089417, -0.05784328281879425, -0.0558447428047657, 0.030417822301387787, -0.14467698335647583, -0.1663365215063095, -0.030684970319271088, 0.08146349340677261, -0.0058358209207654, -0.09882226586341858, 0.10015509277582169, -0.11644693464040756, -0.14441336691379547, 0.07134304195642471, 0.13172468543052673, -0.04924005642533302, -0.01989796943962574, -0.38925397396087646, 0.03576920926570892, -0.05529693886637688], [-0.08079861104488373, -0.44128262996673584, -0.45568692684173584, -0.47998046875, -0.10999257862567902, -0.12683403491973877, -0.4181039333343506, -0.2850280702114105, -0.39548259973526, -0.36945945024490356, 0.163709357380867, 0.1282530277967453, 0.05269959568977356, -0.34050223231315613, -0.16900673508644104, -0.17550694942474365, 0.03217378631234169, -0.19244572520256042, -0.011118612252175808, 0.15362995862960815, -0.08143274486064911, -0.16397766768932343, -0.1529204547405243, -0.1625797301530838, -0.06636883318424225, -0.09414065629243851, -0.22929970920085907, -0.40373075008392334, -0.33271095156669617, -0.4245285391807556, 0.026992421597242355, -0.14483581483364105], [-0.10683446377515793, -0.070859894156456, -0.12509384751319885, -0.16153162717819214, -0.06104646250605583, 0.0702013298869133, -0.21210145950317383, -0.14724498987197876, -0.0263889841735363, 0.04916878789663315, -0.06899356842041016, -0.17292845249176025, -0.33596867322921753, 0.019626839086413383, -0.11032365262508392, 0.056186236441135406, -0.04811305180191994, -0.10156911611557007, 0.021237501874566078, 0.08910747617483139, -0.008505824021995068, -0.16655275225639343, -0.06475787609815598, 0.06001909077167511, -0.17260496318340302, 0.004284437745809555, 0.11675991863012314, -0.27462783455848694, -0.0699458122253418, -0.09700152277946472, -0.15182437002658844, -0.3900642991065979], [0.28956642746925354, -0.2494334727525711, -0.15932822227478027, -0.3299318850040436, -0.1456257402896881, -0.17601145803928375, -0.9074451923370361, -0.21828052401542664, 0.012879058718681335, 0.1947399377822876, -0.11502781510353088, -0.20003795623779297, -0.033716171979904175, -0.3175157308578491, 0.13505885004997253, -0.3473476767539978, 0.12115404009819031, 0.2252490371465683, -0.13560356199741364, -0.15808632969856262, -0.13997012376785278, -0.2145281732082367, -0.36727339029312134, -0.17840605974197388, -0.09771625697612762, 0.1461719125509262, 0.07743887603282928, -0.25897207856178284, 0.09400306642055511, 0.10479089617729187, -0.06412914395332336, -0.4014877676963806], [-0.2835025489330292, -0.39147698879241943, -0.31312984228134155, -0.12427689135074615, -0.19549612700939178, -0.04829959198832512, -0.1746717095375061, -0.38032132387161255, -0.10584822297096252, -0.1412981152534485, 0.02857779711484909, 0.13859990239143372, -0.04063010960817337, -0.40933769941329956, -0.11723218858242035, -0.40194109082221985, 0.16349761188030243, -0.18281184136867523, -0.1326236128807068, -0.10766921937465668, -0.0936092883348465, -0.042371153831481934, -0.1700161248445511, 0.07060825824737549, 0.09059035032987595, -0.036547280848026276, -0.13990271091461182, -0.4116581678390503, -0.13914591073989868, -0.2438546121120453, -0.0029857880435884, -0.12028369307518005], [-0.32117462158203125, -0.21505600214004517, -0.40778329968452454, -0.3576865792274475, -0.17699113488197327, 0.02183569222688675, -0.13453057408332825, -0.09137625992298126, -0.26544189453125, -0.26388245820999146, -0.008744943886995316, -0.1320449411869049, 0.11184941232204437, -0.1256742775440216, -0.08826445043087006, -0.33994361758232117, -0.09541711211204529, -0.09245328605175018, 0.022271299734711647, 0.10341180115938187, 0.09713925421237946, 0.06400827318429947, -0.15782777965068817, -0.017217302694916725, -0.07228802144527435, 0.0558505579829216, -0.243764728307724, -0.22569531202316284, -0.18534311652183533, -0.12431424856185913, 0.08120384812355042, 0.05554939806461334], [0.06340409815311432, -0.2534940838813782, -0.18016590178012848, -0.16850216686725616, 0.023228812962770462, -0.07902675867080688, -0.20731373131275177, -0.026683948934078217, 0.029683055356144905, 0.13543227314949036, -0.09021343290805817, 0.11020629107952118, -0.36624675989151, -0.15619173645973206, -0.14077964425086975, 0.08411035686731339, -0.028825240209698677, -0.08313927054405212, 0.1470402330160141, 0.12712927162647247, -0.1411658525466919, -0.1174895316362381, -0.14407508075237274, 0.15090519189834595, -0.1938994824886322, -0.15734022855758667, -0.13054543733596802, -0.0743911862373352, 0.028913643211126328, -0.3953521251678467, -0.051406487822532654, -0.2430317997932434], [0.02574424259364605, -0.08337850123643875, -0.05546438694000244, -0.11904533207416534, 0.001988825388252735, -0.1326381117105484, -0.2319149225950241, -0.1404368132352829, 0.004398065619170666, -0.06704193353652954, -0.13197875022888184, -0.1240154579281807, -0.05484752729535103, -0.07456333935260773, -0.13571344316005707, -0.1759338676929474, 0.09366251528263092, -0.017065826803445816, -0.1284276396036148, -0.009664208628237247, -0.05119006335735321, 0.1303866058588028, -0.15014304220676422, 0.06114702671766281, -0.1466306746006012, -0.13649338483810425, 0.17440930008888245, -0.08984949439764023, 0.0758802592754364, 0.08915558457374573, -0.0824459120631218, 0.12879899144172668], [-0.018694698810577393, 0.06848521530628204, 0.0283394455909729, 0.1303083747625351, 0.2319764643907547, -0.05086025595664978, -0.3742169737815857, -0.12871918082237244, 0.10383397340774536, 0.1550484150648117, 0.16215214133262634, 0.17609304189682007, -0.040890514850616455, 0.2834327816963196, -0.04310594126582146, 0.09423454105854034, 0.06796059012413025, 0.12235040217638016, 0.15128320455551147, -0.05039656534790993, 0.10252012312412262, -0.02529279887676239, -0.03709325194358826, -0.03301746025681496, 0.1503123641014099, -0.07644207775592804, -0.12739379703998566, -0.1680411398410797, 0.06908039003610611, 0.05382624268531799, -0.08036628365516663, -0.00539204478263855], [0.17397944629192352, -0.306062251329422, 0.0792185440659523, -0.17429590225219727, -0.10798218101263046, 0.014733652584254742, -0.1496225744485855, -0.17747429013252258, 0.06532685458660126, -0.15964393317699432, -0.022377552464604378, 0.06267807632684708, -0.11310961842536926, 0.012517529539763927, -0.13988512754440308, -0.1664709448814392, -0.11919396370649338, -0.04607853665947914, -0.11770278215408325, -0.09447068721055984, -0.14142437279224396, 0.05103977024555206, 0.09663166105747223, -0.09922263771295547, -0.1465674340724945, 0.07458025962114334, 0.022667016834020615, -0.41223883628845215, -0.09385161101818085, 0.08258133381605148, 0.13115133345127106, 0.082066111266613], [-0.13443559408187866, 0.4043400287628174, 0.19657397270202637, 0.10019005835056305, 0.08413669466972351, 0.22791963815689087, -0.19210052490234375, -0.1633366197347641, 0.17256227135658264, 0.0189677681773901, 0.04572945460677147, 0.04047958180308342, 0.02931951731443405, 0.3395679295063019, 0.08411132544279099, 0.23965154588222504, 0.12028995156288147, -0.14052997529506683, -0.06817172467708588, -0.0622110441327095, 0.03389841318130493, 0.26258784532546997, 0.37099650502204895, 0.09000977873802185, 0.021746467798948288, 0.10389745980501175, -0.0453927256166935, -0.30158746242523193, -0.018502993509173393, 0.13584746420383453, 0.02461346425116062, 0.15141865611076355], [0.32963165640830994, -0.2334205061197281, -0.04719746112823486, -0.4918834865093231, -0.2659114599227905, -0.36674490571022034, -0.6211175918579102, -0.28290247917175293, 0.15494349598884583, 0.10017004609107971, -0.3360041081905365, -0.1575654149055481, 0.0715058371424675, -0.280651330947876, 0.1020035445690155, -0.16334927082061768, 0.01833118125796318, 0.10778869688510895, 0.060198891907930374, -0.2141949087381363, -0.14592662453651428, -0.37898585200309753, -0.3568553626537323, -0.16525575518608093, -0.15123501420021057, 0.12799540162086487, 0.001789972186088562, -0.2526906132698059, 0.03315679728984833, -0.011167943477630615, -0.14186997711658478, -0.565660834312439], [0.06436122953891754, 0.046029772609472275, 0.030936017632484436, -0.17185121774673462, 0.04493800178170204, 0.09809992462396622, -0.08359488099813461, -0.11392948031425476, 0.1347729116678238, -0.0113533278927207, -0.017995145171880722, 0.003527164226397872, -0.2163231074810028, 0.016261938959360123, -0.1848965883255005, -0.09568875283002853, 0.10456512868404388, -0.005168973933905363, -0.013151966035366058, 0.14598484337329865, 0.050996970385313034, -0.11094314604997635, -0.02295401692390442, -0.06852736324071884, -0.11075612902641296, -0.14272525906562805, 0.12822555005550385, 0.03983091935515404, 0.058609724044799805, -0.16049593687057495, 0.11433691531419754, -0.3763240575790405], [-0.11818827688694, -0.26116320490837097, -0.09087659418582916, -0.16416236758232117, -0.36499378085136414, 0.1110086441040039, -0.13611526787281036, -0.30841097235679626, -0.14312568306922913, -0.1990186870098114, -0.009544364176690578, -0.11498629301786423, 0.04846038296818733, -0.37694624066352844, -0.10764162242412567, -0.13874584436416626, -0.1340530663728714, -0.2175479680299759, 0.1465260237455368, 0.10400252789258957, -0.10832711309194565, -0.1043342873454094, -0.08453985303640366, -0.05188982933759689, -0.1682259440422058, 0.16789260506629944, -0.2573534846305847, -0.3777930438518524, -0.3320391774177551, -0.1251804381608963, 0.0353025384247303, 0.08129613101482391], [0.17819908261299133, 0.12420423328876495, 0.038781702518463135, 0.009169667959213257, 0.10979190468788147, 0.02495438978075981, -0.38706955313682556, 0.1700417697429657, 0.03558117151260376, 0.016082942485809326, 0.19947782158851624, 0.24962902069091797, -0.08611978590488434, 0.1758093237876892, 0.09397809207439423, 0.32238101959228516, 0.15343564748764038, 0.2361510545015335, 0.07490110397338867, 0.07836876809597015, -0.05100598931312561, 0.0457354411482811, -0.09880109131336212, 0.21533745527267456, -0.05021962523460388, 0.11073710024356842, 0.5098855495452881, 0.3845664858818054, 0.4295314848423004, -0.3624148964881897, -0.15886782109737396, -0.4060395359992981], [0.11024416238069534, -0.08143821358680725, 0.08517448604106903, -0.14375817775726318, -0.057403016835451126, -0.2775941491127014, -0.5791749954223633, -0.12171537429094315, 0.12467526644468307, 0.16857515275478363, 0.11571488529443741, -0.0999373197555542, -0.1481522023677826, 0.008474993519484997, 0.16631847620010376, 0.05228676646947861, 0.15243713557720184, -0.05239510536193848, -0.15759718418121338, -0.14353080093860626, 0.17598822712898254, -0.09944640100002289, -0.17963925004005432, 0.06504184007644653, 0.10124429315328598, 0.06325529515743256, 0.0915093868970871, 0.032646190375089645, -0.020937500521540642, -0.13464267551898956, 0.09311562031507492, -0.1537109911441803], [-0.028080863878130913, -0.2282477617263794, -0.2970329821109772, -0.18714341521263123, -0.11046933382749557, -0.2747512757778168, -0.36440879106521606, -0.014657830819487572, -0.05142294615507126, -0.09753134846687317, 0.0950915738940239, 0.09122581779956818, -0.17372964322566986, -0.0003634322783909738, 0.07318020612001419, 0.06595738977193832, 0.08009753376245499, -0.034954044967889786, 0.14145630598068237, 0.02577846683561802, 0.02854536473751068, -0.4066259264945984, -0.2095971703529358, 0.0859135240316391, -0.06368941068649292, -0.02421492338180542, 0.1205691322684288, -0.03139409050345421, -0.07662302255630493, -0.15411561727523804, 0.1301719695329666, 0.14288531243801117], [-0.09134732931852341, -0.26148051023483276, -0.2450881004333496, -0.16805477440357208, -0.12980332970619202, -0.08801409602165222, -0.38592445850372314, -0.1740623116493225, -0.013617203570902348, 0.1446385383605957, -0.16093020141124725, 0.16412664949893951, -0.11973413825035095, 0.02975691854953766, -0.05910107120871544, -0.09222471714019775, -0.06499667465686798, 0.14227628707885742, 0.006692034192383289, -0.019373178482055664, 0.09703266620635986, -0.3939726650714874, -0.4257126450538635, -0.0814022347331047, -0.029488105326890945, -0.054289523512125015, -0.06951745599508286, -0.13862283527851105, -0.10820893198251724, -0.1070418655872345, -0.08554615080356598, 0.023775437846779823], [-0.24516668915748596, -0.5731149911880493, -0.5180736184120178, -0.5772212743759155, -0.20416255295276642, -0.08289174735546112, -0.223677396774292, -0.1875424087047577, -0.19169852137565613, -0.28494665026664734, -0.07108276337385178, 0.1742425262928009, -0.14653894305229187, -0.39028286933898926, -0.3164357841014862, -0.28600695729255676, 0.07264247536659241, -0.3866555094718933, -0.021413737908005714, 0.005097977351397276, -0.1463063806295395, -0.11985981464385986, 0.10904702544212341, -0.11288730055093765, -0.10378021001815796, 0.11721380054950714, -0.2688198983669281, -0.23668552935123444, -0.1432981938123703, -0.5694600343704224, -0.00027073026285506785, 0.11132731288671494], [-0.2675354778766632, -0.17651933431625366, -0.5327028036117554, -0.3541707396507263, -0.09243769943714142, -0.10600600391626358, -0.11148539185523987, 0.06723387539386749, 0.12818528711795807, -0.3028447926044464, 0.16077692806720734, -0.15075430274009705, -0.035114940255880356, -0.0948677808046341, -0.3240593671798706, -0.3424884080886841, 0.08062740415334702, -0.3633674085140228, 0.14907969534397125, -0.14730218052864075, 0.002133325906470418, -0.037444818764925, 0.020796244964003563, -0.07633232325315475, -0.14855508506298065, -0.018749214708805084, -0.257371187210083, 0.09944219887256622, -0.1298452913761139, -0.33530789613723755, -0.07961057126522064, -0.17548112571239471], [0.05445461347699165, -0.007375782821327448, -0.08764230459928513, -0.16530126333236694, 0.10889795422554016, -0.0015286239795386791, -0.1409839391708374, 0.001574669498950243, 0.15350541472434998, -0.02233412116765976, -0.11382375657558441, 0.05427829176187515, -0.3834976851940155, -0.05167471244931221, -0.10386908054351807, -0.08172132819890976, -0.009603201411664486, -0.04362048953771591, 0.09555701911449432, -0.11565223336219788, -0.17106811702251434, -0.1430683135986328, 0.08198212832212448, 0.019446955993771553, -0.14602237939834595, -0.08176343142986298, 0.14283889532089233, -0.012956678867340088, 0.06788896024227142, -0.0777081549167633, 0.11752673983573914, -0.1395328938961029], [0.09918717294931412, -0.04802351072430611, 0.12127713114023209, -0.14612466096878052, -0.20108306407928467, 0.04528432339429855, -0.2171202301979065, -0.22335156798362732, 0.0562424398958683, -0.17522193491458893, -0.09518249332904816, -0.180445596575737, 0.026365382596850395, -0.1149628758430481, 0.019445374608039856, -0.37013113498687744, 0.04177941009402275, -0.062032151967287064, -0.14604388177394867, -0.19430053234100342, -0.37116867303848267, -0.1551847606897354, -0.1395566463470459, -0.35049399733543396, -0.2825738191604614, -0.07568433880805969, -0.17837369441986084, -0.10140517354011536, -0.3050856590270996, -0.055801644921302795, -0.0613442100584507, -0.19447752833366394], [-0.09390106797218323, -0.14896085858345032, -0.24368269741535187, -0.34491121768951416, -0.33850085735321045, -0.09838753938674927, -0.18927448987960815, -0.22069735825061798, -0.2763046622276306, -0.42622172832489014, -0.1589929610490799, 0.05589679256081581, 0.02454822137951851, -0.3881802558898926, -0.20407050848007202, -0.20747099816799164, -0.11800839006900787, -0.15206731855869293, 0.053711459040641785, -0.17394210398197174, 0.07721219956874847, 0.17416635155677795, -0.11847392469644547, 0.15560272336006165, 0.07310463488101959, -0.08970299363136292, -0.3170631527900696, -0.3654494285583496, -0.08164593577384949, -0.3666313588619232, 0.0486476831138134, 0.15496015548706055], [0.10521481931209564, -0.309970498085022, -0.4116424322128296, 0.41627222299575806, 0.34264200925827026, -0.10264164209365845, -0.42603039741516113, 0.492622435092926, 0.06545846164226532, 0.35596051812171936, 0.2714725136756897, 0.2541862726211548, -0.4689534306526184, 0.3268478810787201, -0.1404993087053299, 0.1350950300693512, -0.11430943757295609, 0.21532981097698212, -0.20516259968280792, 0.3087794780731201, 0.12974780797958374, -0.0843534767627716, -0.1619391143321991, 0.16405993700027466, -0.11178427934646606, -0.18103262782096863, 0.6689221858978271, 0.29486992955207825, 0.3246268033981323, -0.4009310007095337, 0.0411837063729763, -0.6168062090873718], [-0.08398686349391937, -0.3371129035949707, -0.21471095085144043, -0.1770118772983551, -0.00032085180282592773, -0.08242793381214142, -0.3695260286331177, 0.16614660620689392, -0.11927254498004913, -0.15280497074127197, 0.16203339397907257, 0.30907440185546875, 0.4522244930267334, -0.13393273949623108, 0.6145124435424805, 0.11200663447380066, 0.320717453956604, -0.1569342315196991, -0.02921115793287754, 0.18551012873649597, 0.20372380316257477, 0.03567679226398468, 0.38690024614334106, 0.19465848803520203, 0.830569863319397, -0.0753856673836708, 0.29944583773612976, 0.034162670373916626, 0.12067893147468567, 0.1567007452249527, 0.16490525007247925, 0.388879656791687], [-0.008636689744889736, -0.028894994407892227, 0.092921681702137, -0.19407358765602112, -0.08125761151313782, 0.008188542909920216, -0.15477269887924194, -0.20679688453674316, -0.07748396694660187, 0.07759668678045273, -0.19244028627872467, -0.3132837414741516, -0.022297579795122147, -0.132590651512146, -0.04198186472058296, -0.3152151107788086, 0.10054866224527359, 0.0385991595685482, -0.07103419303894043, -0.3157067894935608, -0.15952086448669434, 0.05828477069735527, -0.10451771318912506, -0.3749198913574219, -0.13104254007339478, 0.10143990069627762, -0.3355432152748108, -0.20784661173820496, -0.16810554265975952, 0.13203728199005127, 0.07431264966726303, -0.1800755113363266], [0.17604734003543854, 0.14744973182678223, -0.141097754240036, 0.20330825448036194, 0.6655972599983215, 0.0531981885433197, 0.07909546792507172, 0.15121310949325562, 0.1942359060049057, 0.08489144593477249, 0.3966307044029236, 0.3682346045970917, -0.06938835978507996, 0.3897382915019989, -0.15586668252944946, 0.3238793611526489, 0.09299018979072571, -0.04623005539178848, 0.09141936898231506, 0.3724980652332306, 0.2569512128829956, -0.042461544275283813, 0.2048545628786087, 0.1319858580827713, 0.22356022894382477, 0.23154324293136597, 0.1542961597442627, 0.14482645690441132, 0.13323333859443665, 0.0380101352930069, 0.08615692704916, 0.2878735661506653]], "net.2.bias": [-0.5380900502204895, -0.4368218183517456, -0.44825994968414307, -0.4809297025203705, -0.3166472017765045, -0.39362362027168274, -0.4035044014453888, -0.43839433789253235, -0.47430628538131714, -0.11721424758434296, -0.1355413794517517, -0.6553350687026978, -0.34931179881095886, -0.513322114944458, -0.2025318592786789, -0.5106157064437866, -0.3819337785243988, -0.33681631088256836, -0.38313156366348267, -0.707186222076416, -0.8912628293037415, -0.5633828639984131, -0.41570430994033813, -0.41716644167900085, -0.3374182879924774, -0.6455743312835693, -0.2944689989089966, -0.3945993483066559, -0.5804305672645569, -0.5097762942314148, -0.31481438875198364, -0.6862971186637878], "net.4.weight": [[0.0007931615109555423, -0.6455798149108887, -0.37692469358444214, -0.8162285685539246, -0.10298603028059006, 0.13494589924812317, 0.15038715302944183, 0.10272210836410522, -0.10282596945762634, -0.17294783890247345, -0.1377324014902115, -0.08144077658653259, -0.15056978166103363, 0.19643455743789673, 0.15001000463962555, -0.08078429102897644, -0.1345151960849762, -0.10801596194505692, -0.2051597237586975, -0.04426981508731842, -0.0951838493347168, -0.1295805722475052, -0.16370657086372375, 0.051568374037742615, -0.14126333594322205, -0.20429585874080658, -0.10494163632392883, -0.1158037781715393, -0.3143381178379059, -0.31701210141181946, -0.07887181639671326, -0.16994740068912506], [0.08485168218612671, -0.10156697034835815, 0.0657820999622345, -0.8095064163208008, -0.20249439775943756, -0.15433073043823242, -0.21863043308258057, -0.09299436211585999, -0.1231345683336258, -0.10419952869415283, -0.23099829256534576, -0.022929485887289047, 0.22557556629180908, 0.10462906956672668, -0.08940708637237549, 0.3134084939956665, -0.07915888726711273, 0.1392669528722763, -0.1310102939605713, -0.3015848994255066, -0.0008113689837045968, 0.16431644558906555, -0.0426991805434227, -0.13361147046089172, -0.135292187333107, -0.16870108246803284, 0.006527767051011324, -0.20057331025600433, -0.2546241879463196, -0.17104758322238922, 0.02505703829228878, -0.1592753678560257], [-0.0704231709241867, -0.23417381942272186, 0.1401875764131546, 0.12927965819835663, -0.1581280678510666, -0.18728619813919067, -0.0949038565158844, 0.08012750744819641, 0.14577344059944153, 0.17647208273410797, -0.15220136940479279, -0.016548946499824524, -0.001888958504423499, 0.1144050806760788, 0.01553404238075018, 0.3453444540500641, 0.07866144180297852, 0.09269815683364868, -0.1587730348110199, 0.13404080271720886, 0.15767356753349304, 0.245513454079628, 0.11509272456169128, -0.08575981855392456, 0.0869339182972908, 0.14156806468963623, -0.11527426540851593, -0.17592762410640717, -0.23403692245483398, 0.3929474353790283, 0.018524592742323875, 0.32596585154533386], [0.05413248389959335, 0.3688198924064636, 0.16458483040332794, 0.011503428220748901, -0.02387011982500553, 0.09117288142442703, -0.09673754870891571, -0.006623756606131792, 0.05464467406272888, 0.14916768670082092, -0.13702300190925598, -0.05579538643360138, 0.0005212300457060337, 0.04181121289730072, 0.142982617020607, 0.1469145119190216, 0.16514867544174194, 0.11797960847616196, 0.14743627607822418, 0.4139816164970398, -0.13861769437789917, -0.003687891410663724, 0.08567626029253006, -0.15736311674118042, -0.09595492482185364, -0.11985823512077332, -0.04484913498163223, 0.08672069758176804, 0.18799927830696106, -0.36841973662376404, -0.0006094223354011774, 0.12316794693470001], [-0.05588522553443909, 0.28432101011276245, -0.039840634912252426, 0.9182204008102417, -0.09321235120296478, 0.04312107339501381, 0.015667837113142014, 0.06242108345031738, -0.1745166778564453, 0.14397287368774414, 0.10684853792190552, 0.06928286701440811, 0.08134156465530396, 0.13909219205379486, -0.02564435452222824, -0.23707424104213715, -0.15333081781864166, -0.09089359641075134, 0.1722940355539322, -0.1683463454246521, -0.0891745388507843, -0.11318174004554749, -0.05281440541148186, -0.1572825312614441, 0.16217336058616638, 0.06876519322395325, 0.13713547587394714, -0.10621406137943268, -0.11871424317359924, -0.2419528216123581, 0.02149168960750103, 0.014916583895683289]], "net.4.bias": [-1.110292911529541, -0.894820511341095, -1.0078848600387573, 0.09095713496208191, 0.5435202121734619]}, "starting_cards": [0, 1, 2, 3, 4], "hidden_sizes": [32, 32], "params": {"epochs": 5000, "learning_rate": 0.25, "discount_factor": 1, "epsilon": 0.1, "replay_buffer_capacity": 64, "update_interval": 20, "minibatch_size": 32, "hidden_sizes": [32, 32]}}}