{"class": "DQNAgent", "payload": {"model_state_dict": {"net.0.weight": [[-0.037584736943244934, -0.2478138655424118, 0.09377425909042358, -0.12559427320957184, -0.2873351275920868, -0.5881774425506592], [-0.17574459314346313, -0.3544115722179413, -0.0478367805480957, 0.1023203507065773, 0.10860510170459747, -0.5490125417709351], [-0.23440870642662048, -0.2226203829050064, -0.4693593978881836, 0.16805918514728546, -0.5591647624969482, -0.6828007698059082], [0.027253523468971252, -0.28065225481987, -0.5707153677940369, -0.06535668671131134, -0.14365245401859283, 0.06781594455242157], [-0.3006279766559601, 0.0255289226770401, -0.19893458485603333, -0.32035595178604126, 0.045614466071128845, -0.18019692599773407], [-0.18188560009002686, -0.13982532918453217, -0.10523544251918793, 0.167031928896904, 0.09349888563156128, -0.4673922657966614], [0.10259386152029037, -0.030696801841259003, 0.04844674468040466, -0.2698909640312195, -0.14009319245815277, 0.04911324381828308], [0.1592680811882019, -0.11012054979801178, -0.12222672998905182, 0.15029942989349365, -0.12332332134246826, -0.5793830156326294], [-1.0650532245635986, -0.5040040016174316, -0.041221097111701965, -0.5367023944854736, -2.060253381729126, 1.3602887392044067], [0.12838377058506012, -0.024623161181807518, -0.1723666489124298, -0.07022208720445633, -0.28574565052986145, -0.34593066573143005], [-0.15254993736743927, -0.004592344164848328, -0.6093858480453491, 0.05559396743774414, -0.04369582235813141, -0.2935081720352173], [0.08612106740474701, 0.11390825361013412, -0.5651082396507263, 0.04386609047651291, -0.15392687916755676, -0.23748023808002472], [0.15758472681045532, 0.11158090084791183, -0.27820807695388794, 0.04064340889453888, -0.14479336142539978, -0.39389264583587646], [-0.15175755321979523, -0.39674100279808044, 0.14052799344062805, -0.17526453733444214, -0.032689228653907776, -0.5991866588592529], [-0.04541102424263954, 0.07942816615104675, -0.5950640439987183, -0.07410396635532379, 0.13307034969329834, -0.3872528374195099], [-0.2148534655570984, 0.13402485847473145, -0.44504839181900024, 0.01172791700810194, 0.12900948524475098, -0.12868759036064148], [0.022650688886642456, -0.07163625955581665, -0.11875266581773758, -0.1607932597398758, -0.12563207745552063, 0.02506232261657715], [0.3557657301425934, 0.275996595621109, -0.47569164633750916, -0.11904402077198029, -0.17848166823387146, -0.31477585434913635], [-0.06931076943874359, 0.16147862374782562, -0.749518871307373, 0.39547526836395264, 0.04667364060878754, -0.042518362402915955], [-0.07577533274888992, -0.1508082002401352, -0.36960461735725403, -0.3326595723628998, -0.20508576929569244, 0.1458139568567276], [0.45980003476142883, 0.22390888631343842, -0.10372215509414673, -0.3035624623298645, 0.42076829075813293, -0.1399449110031128], [-0.3927307724952698, 0.29221105575561523, -0.1517774611711502, -0.27675020694732666, -0.08515462279319763, -0.5872929096221924], [0.39719733595848083, -0.0479329451918602, -0.3211102783679962, -0.03409837931394577, -0.057972703129053116, 0.1119183897972107], [-0.15522238612174988, 0.16662195324897766, -0.20539002120494843, 0.08061277866363525, 0.2513757050037384, -0.2652921974658966], [-0.05774542689323425, -0.2646377682685852, -0.36631688475608826, 0.046656444668769836, 0.14745478332042694, -0.33814939856529236], [-0.16154208779335022, 0.1393968164920807, -0.19083601236343384, -0.36718955636024475, 0.03981220722198486, -0.04804814234375954], [-0.14987024664878845, -0.36258986592292786, 0.02471059560775757, -0.3484511077404022, -0.26210200786590576, -0.2844383120536804], [-0.29018500447273254, 0.12470079213380814, 0.13615170121192932, 0.0740518867969513, -0.2554272413253784, -0.37083303928375244], [-0.23380108177661896, -0.26867467164993286, -0.1649142950773239, -0.09974345564842224, -0.1531217247247696, -0.3729751408100128], [0.2644195258617401, 0.17372149229049683, -0.162220761179924, -0.15100695192813873, -0.010563413612544537, -0.17668555676937103], [0.21756237745285034, 0.07209352403879166, -0.24333548545837402, -0.3393760919570923, -0.158574178814888, -0.32590362429618835], [-0.077455073595047, -0.08453135192394257, -0.6743081212043762, 0.05403899773955345, -0.18154777586460114, -0.2680101692676544]], "net.0.bias": [-0.013015270233154297, -0.35768505930900574, -0.41995495557785034, -0.6295142769813538, -0.2597578763961792, -0.5758266448974609, -0.14411671459674835, -0.04497866332530975, -0.7840895056724548, -0.041426073759794235, -0.27606743574142456, -0.37266039848327637, -0.2954561412334442, -0.17647609114646912, -0.2741292119026184, -0.5504711866378784, -0.48190534114837646, -0.18205705285072327, -0.7712678909301758, -0.37972891330718994, -1.1273114681243896, -0.24209502339363098, -0.18547168374061584, -0.31145137548446655, -0.5778229236602783, -0.41910654306411743, -0.35905444622039795, -0.2951138913631439, -0.3482871651649475, -0.13185065984725952, -0.16831308603286743, -0.2414695918560028], "net.2.weight": [[-0.12116023898124695, 0.06118491664528847, -0.10108666121959686, 0.018237657845020294, -0.10338573157787323, -0.14651410281658173, -0.1286362111568451, 0.10724065452814102, -0.15428997576236725, -0.12680146098136902, -0.17869989573955536, -0.11956670880317688, -0.14858414232730865, -0.0760287418961525, -0.13168400526046753, 0.01562423724681139, 0.1622273325920105, 0.07384566217660904, -0.5336610674858093, 0.1509552001953125, 0.3238990902900696, 0.05824540555477142, -0.16334010660648346, -0.12310867011547089, -0.11875057220458984, -0.08856940269470215, 0.04567300155758858, 0.08305624127388, -0.1310240924358368, -0.042743247002363205, -0.017756404355168343, -0.08599739521741867], [0.14265763759613037, -0.1542845219373703, -0.10413748025894165, -0.07404075562953949, -0.0165935717523098, 0.13595840334892273, 0.14502310752868652, -0.10337702929973602, 0.1044580340385437, -0.15590813755989075, -0.1404896080493927, -0.08674487471580505, 0.014161256141960621, -0.040649835020303726, 0.00800364464521408, -0.1658286303281784, 0.10697519034147263, -0.14292748272418976, -0.13113856315612793, -0.028942620381712914, -0.21390819549560547, -0.09103291481733322, 0.05646476522088051, 0.055376723408699036, 0.14501601457595825, -0.0475989431142807, 0.1254401057958603, -0.10485115647315979, 0.052318841218948364, -0.14220412075519562, 0.1264452487230301, -0.1574728935956955], [-0.009582001715898514, 0.14814448356628418, 0.160795658826828, -0.05231612175703049, -0.12351787090301514, 0.034594953060150146, 0.16052870452404022, 0.09532839059829712, -0.1045326441526413, 0.0446363128721714, -0.0946936383843422, 0.15396706759929657, 0.0036114791873842478, 0.05352746695280075, 0.14452986419200897, -0.111577607691288, 0.05550017207860947, -0.1307782083749771, 0.05173879489302635, -0.08866870403289795, 0.02592659182846546, -0.16116230189800262, 0.05336703360080719, 0.14019271731376648, 0.009514756500720978, -0.13521336019039154, 0.060999300330877304, -0.1339612752199173, 0.08954961597919464, 0.12147398293018341, 0.08456994593143463, -0.12964722514152527], [-0.149430051445961, 0.08698488026857376, -0.24506251513957977, 0.07681617140769958, -0.23690518736839294, -0.12520383298397064, -0.08932472765445709, -0.078550323843956, -0.10853272676467896, 0.09274514764547348, -0.35100969672203064, -0.13540531694889069, -0.12501941621303558, -0.12880131602287292, 0.0946425050497055, 0.11658865213394165, 0.22890952229499817, -0.14737363159656525, -0.31102845072746277, 0.20965218544006348, -0.02829362079501152, -0.25580471754074097, -0.08816082775592804, -0.0241023488342762, -0.3559305667877197, -0.3206402063369751, 0.3107878267765045, 0.12205326557159424, 0.16778017580509186, 0.017709093168377876, -0.01594611257314682, -0.2586985230445862], [-0.2685087025165558, 0.13267521560192108, 0.10774502158164978, 0.026033159345388412, -0.07981066405773163, -0.15038111805915833, -0.18411818146705627, -0.42044883966445923, 0.11003580689430237, -0.08583919703960419, -0.012502756901085377, -0.08113360404968262, -0.03137712553143501, -0.17576345801353455, -0.08342628180980682, -0.3210107088088989, -0.3685251474380493, -0.15896447002887726, 0.01391688920557499, -0.3007461726665497, -0.18695026636123657, -0.3934464454650879, -0.20625120401382446, -0.05008590221405029, -0.13929246366024017, 0.08047662675380707, -0.09560786187648773, -0.08900251239538193, 0.13124488294124603, 0.1478826403617859, 0.16576679050922394, -0.1372973620891571], [0.5367947220802307, 0.3823062777519226, 0.1338793784379959, -0.21094690263271332, -0.08931675553321838, 0.30929359793663025, 0.3072451651096344, 0.33518242835998535, 0.601927638053894, -0.11701888591051102, -0.12662628293037415, 0.35780858993530273, 0.2937319874763489, 0.47844845056533813, -0.19583001732826233, 0.49290189146995544, 0.1657414734363556, 0.28315678238868713, -0.0764627605676651, 0.16781921684741974, 0.3293130099773407, 0.912789523601532, 0.2094622701406479, -0.2655526399612427, -0.08530139923095703, -0.36438441276550293, -0.3942788243293762, 0.06228172406554222, -0.2970350682735443, 0.05487608164548874, -0.14966048300266266, 0.35740697383880615], [-0.25788813829421997, -0.13677136600017548, 0.1639527529478073, -0.11754671484231949, -0.07086724787950516, -0.017261704429984093, -0.1396476924419403, -0.1641349196434021, -0.03301459550857544, 0.16036726534366608, 0.11279160529375076, -0.13501612842082977, 0.055919572710990906, -0.4241487979888916, -0.3972984552383423, -0.11215028166770935, -0.17109538614749908, -0.17238667607307434, -0.1798553764820099, -0.26331278681755066, -0.17635031044483185, -0.25021612644195557, -0.11208587884902954, 0.022081386297941208, -0.14979234337806702, 0.11704563349485397, -0.08987610042095184, -0.12186002731323242, 0.08910632133483887, -0.17362543940544128, 0.01461821235716343, -0.08401218056678772], [-0.23795460164546967, -0.04905256628990173, 0.07108397036790848, -0.0029340949840843678, 0.16878236830234528, 0.11316026002168655, 0.14804325997829437, -0.1992798149585724, -0.19053778052330017, -0.06937292963266373, -0.16820652782917023, -0.11155617237091064, 0.00929184164851904, -0.15805311501026154, 0.1870405077934265, -0.05362994968891144, 0.14507165551185608, -0.15468505024909973, -0.10638517141342163, 0.1058596670627594, -0.173323392868042, -0.15656644105911255, 0.10521052777767181, -0.13552525639533997, -0.15996389091014862, -0.06643778085708618, 0.11223004758358002, 0.17210091650485992, 0.10418112576007843, -0.10352528095245361, -0.007815353572368622, -0.11060242354869843], [-0.2887462377548218, 0.08433680981397629, -0.24891573190689087, 0.06255542486906052, 0.09700760990381241, 0.15443085134029388, 0.00183829665184021, -0.3890268802642822, -0.20473916828632355, 0.06527351588010788, -0.08223891258239746, -0.1116485744714737, 0.0304561760276556, -0.2913401126861572, 0.3231211006641388, 0.11737129092216492, 0.0881042331457138, -0.1701035052537918, 0.03518589586019516, 0.36991414427757263, -0.08356158435344696, -0.14194297790527344, 0.16879430413246155, 0.0635317787528038, -0.1116410568356514, -0.04310223087668419, 0.3623216152191162, -0.10131994634866714, 0.11787588149309158, 0.09526045620441437, 0.09595562517642975, -0.1416522115468979], [-0.3909870386123657, -0.02370140701532364, 0.15059509873390198, 0.16638314723968506, -0.026740403845906258, 0.12888343632221222, -0.3201071619987488, -0.24233420193195343, -0.13980057835578918, -0.108622707426548, 0.04692939668893814, -0.3501484990119934, -0.17052116990089417, -0.30783921480178833, -0.30584341287612915, -0.21958065032958984, -0.39466047286987305, -0.4163355827331543, -0.030684970319271088, -0.16853401064872742, -0.0058358209207654, -0.09882143139839172, -0.14984393119812012, -0.11644693464040756, -0.14441336691379547, 0.07134304195642471, -0.11827316880226135, -0.04924005642533302, -0.01989796943962574, -0.13926132023334503, 0.03576920926570892, -0.30529576539993286], [-0.08079881966114044, 0.05871095880866051, 0.044286370277404785, 0.020017307251691818, 0.14000007510185242, 0.12316583842039108, -0.41811269521713257, -0.28502777218818665, -0.14548331499099731, -0.11946050077676773, 0.163709357380867, -0.12174652516841888, 0.05269959568977356, -0.3405006527900696, -0.16900694370269775, -0.17550691962242126, -0.21781666576862335, -0.19244614243507385, -0.011118612252175808, -0.09636861085891724, -0.08143274486064911, -0.16397714614868164, -0.4029198884963989, -0.1625797301530838, -0.06636883318424225, -0.09414065629243851, -0.22930003702640533, -0.1537315398454666, -0.08271150290966034, 0.07546306401491165, 0.026992421597242355, -0.39483514428138733], [-0.10683446377515793, -0.070859894156456, -0.12509384751319885, -0.16153162717819214, -0.06104646250605583, 0.0702013298869133, 0.0378984659910202, -0.14724498987197876, -0.0263889841735363, 0.04916878789663315, -0.06899356842041016, -0.17292845249176025, -0.08596869558095932, 0.019626839086413383, 0.13967633247375488, 0.056186236441135406, -0.04811305180191994, -0.10156911611557007, 0.021237501874566078, 0.08910747617483139, -0.008505824021995068, -0.16655275225639343, -0.06475787609815598, 0.06001909077167511, 0.0773949921131134, 0.004284437745809555, 0.11675991863012314, -0.02462787739932537, -0.0699458122253418, 0.1529984325170517, -0.15182437002658844, 0.10993558168411255], [-0.2104332149028778, 0.0005666011711582541, -0.15932561457157135, 0.1700674444437027, -0.1456247866153717, 0.0739874392747879, -0.15744651854038239, -0.21828046441078186, 0.012872932478785515, -0.055259764194488525, -0.11502808332443237, 0.04996190592646599, -0.033716171979904175, -0.31751540303230286, -0.3649408221244812, -0.09734762459993362, 0.12115404009819031, -0.27475062012672424, -0.6356033682823181, 0.09191346913576126, 0.36002635955810547, -0.21452876925468445, -0.11727391928434372, 0.07159364968538284, -0.09771642088890076, -0.10382802784442902, 0.07743772864341736, -0.008972115814685822, 0.09400297701358795, 0.10479217022657394, -0.06412914395332336, -0.15150173008441925], [-0.2835026979446411, -0.14147727191448212, -0.06313405930995941, 0.12572281062602997, 0.05450225993990898, -0.04829959198832512, -0.1746717095375061, -0.38032132387161255, 0.14414763450622559, 0.1087016761302948, 0.02857779711484909, 0.13859990239143372, -0.04063010960817337, -0.40933769941329956, 0.13276758790016174, -0.15194128453731537, 0.16349761188030243, -0.18281203508377075, -0.1326236128807068, -0.10766921937465668, -0.0936092883348465, -0.29237109422683716, -0.1700161248445511, 0.07060825824737549, 0.09059035032987595, -0.036547280848026276, 0.11009694635868073, -0.16165834665298462, 0.11085396260023117, 0.006144230719655752, -0.0029857880435884, -0.3702836036682129], [-0.32117682695388794, 0.034942179918289185, -0.1578161120414734, -0.10768867284059525, -0.1770031750202179, 0.02183569222688675, -0.13453100621700287, -0.09137788414955139, -0.5154422521591187, -0.013884183019399643, -0.25874489545822144, -0.13204534351825714, 0.11184941232204437, -0.12567774951457977, 0.16173310577869415, -0.08994579315185547, -0.09542587399482727, -0.09245531260967255, -0.4777284860610962, 0.10341058671474457, 0.34713810682296753, -0.1859922856092453, -0.157828226685524, -0.017217302694916725, -0.32228797674179077, -0.1941494345664978, 0.25623148679733276, 0.024303369224071503, 0.06465592235326767, 0.12567678093910217, 0.08120384812355042, -0.19445118308067322], [0.06340409815311432, -0.0034975772723555565, 0.06982925534248352, 0.0814971923828125, 0.023228812962770462, 0.17097313702106476, 0.04268013313412666, -0.026683948934078217, 0.029683055356144905, 0.13543227314949036, -0.09021343290805817, 0.11020629107952118, -0.1162470132112503, -0.15619173645973206, 0.10922003537416458, 0.08411035686731339, -0.028825240209698677, -0.08313927054405212, 0.39704036712646484, 0.12712927162647247, -0.1411658525466919, 0.13251040875911713, -0.14407508075237274, 0.15090519189834595, 0.05610019341111183, -0.15734022855758667, -0.13054543733596802, -0.0743911862373352, 0.028913643211126328, 0.10464558750391006, -0.051406487822532654, 0.006967843510210514], [0.02574424259364605, -0.08337850123643875, -0.05546438694000244, -0.11904533207416534, 0.001988825388252735, -0.1326381117105484, 0.018085064366459846, -0.1404368132352829, 0.004398065619170666, -0.06704193353652954, -0.13197875022888184, -0.1240154579281807, -0.05484752729535103, -0.07456333935260773, -0.13571344316005707, -0.1759338676929474, 0.09366251528263092, -0.017065826803445816, -0.1284276396036148, -0.009664208628237247, -0.05119006335735321, 0.1303866058588028, -0.15014304220676422, 0.06114702671766281, -0.1466306746006012, -0.13649338483810425, 0.17440930008888245, -0.08984949439764023, 0.0758802592754364, 0.08915558457374573, -0.0824459120631218, 0.12879899144172668], [-0.018694698810577393, 0.06848529726266861, 0.028339413926005363, 0.13030877709388733, -0.01802057959139347, -0.05085933953523636, -0.12421668320894241, -0.1287192553281784, -0.14614352583885193, 0.1550484150648117, 0.16215214133262634, 0.17609304189682007, -0.040890514850616455, 0.033433154225349426, -0.04310594126582146, -0.155765101313591, 0.06796059012413025, 0.12235040217638016, 0.15128323435783386, -0.05039656534790993, -0.14747978746891022, -0.025292912498116493, -0.037093523889780045, -0.03301746025681496, 0.1503123641014099, -0.07644207775592804, -0.12739379703998566, 0.08195877820253372, 0.06908039003610611, 0.05382637307047844, -0.08036628365516663, -0.005391909275203943], [0.42397868633270264, -0.3060621917247772, -0.17077204585075378, -0.17429590225219727, -0.10798218101263046, -0.23526209592819214, 0.3503769040107727, 0.32252418994903564, 0.06532697379589081, -0.15964393317699432, -0.022377552464604378, 0.312685489654541, -0.36310940980911255, 0.26251524686813354, 0.11011414229869843, 0.0835295021533966, 0.13079720735549927, -0.29606789350509644, -0.11770278215408325, 0.1555279791355133, -0.39142411947250366, -0.4488716423511505, 0.5966309905052185, -0.09922263771295547, -0.1465674340724945, 0.07458025962114334, 0.2726658582687378, -0.16223900020122528, -0.09385161101818085, 0.08258133381605148, 0.13115133345127106, -0.16792865097522736], [-0.38443470001220703, 0.15434004366397858, -0.05342618748545647, 0.10020293295383453, -0.1658584177494049, -0.022057868540287018, -0.1920827478170395, -0.1633356809616089, -0.07740060240030289, 0.0189677681773901, 0.04572945460677147, -0.20951984822750092, 0.02931951731443405, -0.1604287326335907, -0.1658877432346344, -0.2603468596935272, -0.12969860434532166, -0.3905293345451355, -0.06817172467708588, -0.3122093081474304, 0.03389841318130493, -0.23740345239639282, -0.12898394465446472, 0.09000977873802185, 0.021746467798948288, 0.10389745980501175, -0.2953912317752838, -0.05158746615052223, -0.018502993509173393, -0.11410032212734222, 0.02461346425116062, -0.09858012199401855], [0.07963204383850098, 0.016579747200012207, -0.04719060659408569, 0.008115923032164574, -0.01590959168970585, -0.11674556881189346, 0.12888097763061523, -0.0329025462269783, -0.09506332874298096, -0.14982955157756805, -0.08600451797246933, 0.09243444353342056, 0.0715058371424675, -0.030651232227683067, -0.14799602329730988, 0.0866508036851883, 0.01833118125796318, -0.1422109454870224, 0.060198891907930374, 0.03580484166741371, -0.14591087400913239, -0.12898626923561096, -0.10685570538043976, 0.0847439095377922, 0.09876471012830734, 0.12799540162086487, 0.0017885436536744237, -0.002690549474209547, 0.033156756311655045, -0.011165859177708626, -0.14186997711658478, -0.31567084789276123], [0.06436122953891754, 0.046029772609472275, 0.030936017632484436, -0.17185121774673462, 0.04493800178170204, 0.09809992462396622, -0.08359488099813461, -0.11392948031425476, 0.13477282226085663, -0.0113533278927207, -0.017995145171880722, 0.003527164226397872, 0.03367684781551361, 0.016261938959360123, 0.06510338932275772, -0.09568875283002853, 0.10456512868404388, -0.005168973933905363, -0.013151966035366058, 0.14598484337329865, -0.1990029662847519, -0.11094314604997635, -0.02295401692390442, -0.06852736324071884, 0.13924382627010345, -0.14272525906562805, 0.12822555005550385, 0.03983091935515404, 0.058609724044799805, 0.08950401842594147, 0.11433691531419754, -0.1263241171836853], [-0.11819083988666534, -0.011163541115820408, -0.09088167548179626, 0.08583730459213257, -0.36499571800231934, 0.1110086441040039, 0.1138831377029419, -0.3084138035774231, -0.14312583208084106, 0.05098101496696472, -0.2595442831516266, -0.11498776078224182, 0.04846038296818733, -0.37695395946502686, 0.14235562086105347, 0.1112511157989502, 0.1159159392118454, -0.21754993498325348, -0.10347369313240051, 0.3539978563785553, -0.10832711309194565, -0.35433638095855713, -0.08454161882400513, -0.05188982933759689, -0.41822582483291626, -0.08210732042789459, 0.2426421046257019, -0.12779325246810913, -0.08203932642936707, 0.1248181015253067, 0.0353025384247303, -0.1687059849500656], [0.17819873988628387, -0.1257949024438858, 0.03879305347800255, 0.009172439575195312, -0.14020439982414246, -0.2250431627035141, 0.6129318475723267, 0.1700429916381836, 0.03557160496711731, 0.01608268916606903, -0.05052119493484497, 0.24963338673114777, -0.08611954748630524, 0.4258062243461609, 0.34397780895233154, 0.32238131761550903, 0.6534234881401062, -0.01384851336479187, -0.17509661614894867, 0.32836735248565674, -0.30101674795150757, -0.20425988733768463, 0.6511962413787842, -0.03466165065765381, -0.05021480843424797, -0.13926266133785248, 0.25989025831222534, 0.13456787168979645, -0.07046744227409363, -0.11241131275892258, -0.15886782109737396, 0.09449438750743866], [-0.13975977897644043, -0.08142951875925064, -0.4148135483264923, 0.10624318569898605, -0.057403016835451126, -0.027593836188316345, -0.07916279137134552, -0.37171995639801025, -0.12532463669776917, 0.16857515275478363, 0.11571488529443741, -0.09993979334831238, -0.1481522023677826, -0.24153782427310944, 0.4163142144680023, 0.052282050251960754, 0.4023842215538025, -0.5523980855941772, -0.40759706497192383, 0.10646121203899384, 0.17598378658294678, -0.09945029020309448, 0.07035723328590393, -0.1849581003189087, 0.10124429315328598, 0.06325529515743256, 0.09150269627571106, 0.032646190375089645, -0.27093741297721863, -0.13463768362998962, 0.09311562031507492, -0.4037158489227295], [0.22191329300403595, 0.2717489004135132, -0.5470340251922607, 0.06285218149423599, -0.11046933382749557, 0.2252206802368164, 0.38557904958724976, 0.23533537983894348, 0.1985769271850586, -0.09753134846687317, 0.0950915738940239, 0.8412163853645325, 0.0762702077627182, 0.24961788952350616, 0.3231741189956665, 0.8159494400024414, 0.3300217390060425, -0.5349504947662354, 0.14145618677139282, 0.2757670283317566, 0.528538703918457, -0.15658502280712128, 0.5403858423233032, -0.16408643126487732, -0.06368941068649292, -0.02421492338180542, 0.1205594539642334, -0.03139409050345421, -0.07662305235862732, 0.09588129818439484, 0.1301719695329666, -0.8570789098739624], [-0.3413483500480652, -0.011480611748993397, -0.2450873851776123, 0.08194506168365479, -0.12980332970619202, 0.16198506951332092, -0.13592542707920074, -0.42406344413757324, -0.26361706852912903, 0.1446385383605957, -0.16093020141124725, 0.16412602365016937, -0.11973413825035095, -0.22024652361869812, 0.19089773297309875, -0.09222598373889923, 0.18498869240283966, -0.10772442817687988, 0.006692034192383289, 0.23062460124492645, -0.15296722948551178, -0.393974244594574, -0.17571380734443665, -0.0814022347331047, -0.029488105326890945, -0.054289523512125015, 0.18048065900802612, -0.13862283527851105, -0.10820893198251724, 0.14295801520347595, -0.08554615080356598, -0.22622551023960114], [-0.24516619741916656, -0.07312027364969254, -0.018085697665810585, -0.0772225484251976, 0.045835454016923904, 0.16710810363292694, -0.223685622215271, -0.18754169344902039, 0.05830127000808716, -0.03494696319103241, -0.07108276337385178, -0.07575702667236328, -0.14653894305229187, -0.39028066396713257, -0.3164352774620056, -0.2860063314437866, -0.17734785377979279, -0.38665521144866943, -0.021413737908005714, -0.24490055441856384, -0.1463063806295395, -0.1198592334985733, -0.14095240831375122, -0.11288730055093765, -0.10378021001815796, 0.11721380054950714, -0.26881906390190125, 0.013314231298863888, 0.10670165717601776, -0.06946432590484619, -0.00027073026285506785, -0.13867199420928955], [-0.01753576472401619, 0.07348033040761948, -0.032809656113386154, -0.10417105257511139, 0.15756027400493622, -0.10600600391626358, 0.13850454986095428, 0.06723425537347794, 0.12818562984466553, -0.05284510925412178, 0.16077692806720734, -0.15075430274009705, -0.035114940255880356, 0.155131995677948, -0.07405968010425568, -0.09248864650726318, 0.08062740415334702, -0.11336766928434372, -0.10092028975486755, -0.14730218052864075, 0.002133325906470418, -0.037444818764925, 0.020796244964003563, -0.07633232325315475, -0.14855508506298065, -0.018749214708805084, -0.007371630985289812, 0.09944295883178711, 0.12015455216169357, -0.08530941605567932, -0.07961057126522064, -0.17548112571239471], [-0.19554255902767181, -0.007375782821327448, -0.08764230459928513, -0.16530126333236694, 0.10889795422554016, -0.0015286239795386791, -0.1409820318222046, -0.2484220713376999, 0.1535053551197052, -0.02233412116765976, -0.11382375657558441, -0.19571992754936218, -0.1334977149963379, -0.30166563391685486, -0.10386615991592407, -0.33171799778938293, -0.25956642627716064, -0.293618381023407, -0.15444298088550568, -0.3656466603279114, -0.17106811702251434, -0.39306575059890747, -0.168015718460083, 0.019446955993771553, 0.10397753864526749, -0.08176343142986298, -0.10715635120868683, -0.012956678867340088, 0.06788896024227142, 0.17229178547859192, 0.11752673983573914, -0.13953042030334473], [-0.1508115530014038, -0.04802351072430611, 0.12127713114023209, 0.10387466102838516, 0.048916831612586975, 0.04528432339429855, -0.21712012588977814, -0.22335022687911987, 0.0562424398958683, -0.17522193491458893, 0.15481720864772797, -0.18044491112232208, 0.026365382596850395, -0.11495895683765411, -0.23055331408977509, -0.3701297342777252, -0.20820438861846924, -0.31203120946884155, -0.14604388177394867, -0.19429822266101837, -0.12116898596286774, -0.4051836133003235, -0.3895556926727295, -0.10049428790807724, -0.03257405385375023, -0.07568433880805969, -0.17837318778038025, 0.14859463274478912, -0.055085886269807816, -0.055801644921302795, -0.0613442100584507, -0.19449053704738617], [-0.09389892220497131, 0.10103840380907059, 0.006304978858679533, -0.09491202235221863, -0.08850553631782532, -0.09838753938674927, -0.1892726719379425, -0.22069454193115234, -0.02630509063601494, -0.17622241377830505, -0.1589929610490799, -0.1941014677286148, 0.02454822137951851, -0.388171911239624, -0.20406828820705414, -0.20746827125549316, -0.36797261238098145, -0.15206584334373474, 0.053711459040641785, -0.4239366948604584, -0.17278774082660675, -0.0758311003446579, -0.3684718608856201, 0.15560272336006165, 0.07310463488101959, -0.08970299363136292, -0.31705954670906067, -0.11544991284608841, 0.16835370659828186, -0.1166348084807396, 0.0486476831138134, -0.0950373113155365]], "net.2.bias": [-0.39477968215942383, -0.5599560141563416, -0.41151100397109985, -0.33371835947036743, -0.40730926394462585, -0.6026395559310913, -0.4260304570198059, -0.5073541402816772, -0.43454647064208984, -0.3940317630767822, -0.22852657735347748, -0.2458132803440094, -0.2189551442861557, -0.4231477975845337, -0.3904934823513031, -0.3648993670940399, -0.11430943757295609, -0.28466376662254333, -0.45516782999038696, -0.19121992588043213, -0.6202498078346252, -0.3343534767627716, -0.41194087266921997, -0.33594000339508057, -0.36181384325027466, -0.6810353398323059, -0.33106353878974915, -0.20511916279792786, -0.4253688454627991, -0.4008959233760834, -0.20881596207618713, -0.37007057666778564], "net.4.weight": [[0.16601324081420898, 0.1629021167755127, -0.21470800042152405, 0.07298766076564789, -0.0003225076652597636, 0.1675904542207718, 0.13047224283218384, 0.16614672541618347, -0.11928626894950867, -0.40280187129974365, -0.0879659503698349, -0.1909237653017044, -0.04777456820011139, -0.13393130898475647, -0.13548703491687775, 0.3620064854621887, 0.07072584331035614, 0.093065544962883, -0.5292111039161682, -0.06448948383331299, -0.04627564549446106, 0.2856816053390503, 0.13690543174743652, -0.3053406774997711, -0.41941702365875244, -0.32538536190986633, -0.20055066049098969, 0.034162990748882294, 0.12067937850952148, 0.15670037269592285, 0.16490525007247925, -0.10962995886802673], [-0.008636578917503357, 0.22110435366630554, 0.092921681702137, 0.05592583119869232, -0.08125729858875275, 0.2581890821456909, 0.09522669017314911, 0.04320300742983818, 0.17251591384410858, 0.07759668678045273, 0.05755946412682533, -0.06328386813402176, -0.022297561168670654, -0.3825906217098236, -0.04198184609413147, -0.0652148425579071, 0.10054866224527359, 0.0385991595685482, 0.17896577715873718, -0.06570695340633392, -0.15952137112617493, 0.05828484892845154, -0.10451771318912506, 0.12507984042167664, 0.11895661056041718, 0.10143974423408508, 0.16445527970790863, 0.04215323179960251, 0.08189425617456436, 0.13203725218772888, 0.07431264966726303, -0.18008741736412048], [0.17604734003543854, 0.1474495828151703, -0.14109782874584198, -0.046689942479133606, -0.08439913392066956, 0.5532379150390625, -0.1709039807319641, -0.0987863689661026, -0.055738046765327454, -0.165108323097229, -0.10336852073669434, 0.11823470145463943, 0.1806119978427887, -0.11026085913181305, 0.09413158893585205, -0.17612017691135406, 0.09299018979072571, -0.04623005539178848, 0.0914234071969986, -0.12750160694122314, -0.24304848909378052, -0.04245704784989357, -0.045143499970436096, 0.13198645412921906, -0.026429027318954468, -0.018455564975738525, -0.09570184350013733, -0.10517328977584839, -0.11676649004220963, -0.21198707818984985, -0.163842111825943, -0.21091261506080627]], "net.4.bias": [-1.0383951663970947, 0.31383419036865234, 0.30059614777565]}, "starting_cards": [0, 1, 2], "hidden_sizes": [32, 32], "params": {"epochs": 5000, "learning_rate": 0.25, "discount_factor": 1, "epsilon": 0.1, "replay_buffer_capacity": 64, "update_interval": 20, "minibatch_size": 32, "hidden_sizes": [32, 32]}}}