{"class": "DQNAgent", "payload": {"model_state_dict": {"net.0.weight": [[-0.037584736943244934, -0.2478138655424118, 0.3437742292881012, -0.12559427320957184, -0.2873351275920868, -0.33817747235298157], [0.07425492256879807, -0.3544115722179413, -0.2978358268737793, -0.14767855405807495, 0.3586046099662781, -0.5490126609802246], [0.015591248869895935, 0.027377396821975708, -0.21934041380882263, 0.1680806279182434, -0.05916707217693329, -0.432803213596344], [0.027253657579421997, -0.28065991401672363, -0.5707224607467651, -0.06535659730434418, -0.3936578035354614, 0.317806601524353], [-0.3006279766559601, 0.02553325891494751, -0.19893024861812592, -0.07035596668720245, 0.045618802309036255, -0.43019258975982666], [-0.18188680708408356, -0.3898260295391083, -0.6052368879318237, -0.5829684734344482, 0.34349703788757324, -0.7173933982849121], [0.10259386152029037, -0.030696801841259003, 0.04844680428504944, -0.2698909640312195, -0.14009319245815277, 0.049113303422927856], [-0.0907319039106369, -0.36011961102485657, -0.12220779061317444, -0.09968253970146179, -0.37332236766815186, -0.5793821215629578]], "net.0.bias": [-0.3150533139705658, -0.254006564617157, -0.2912108898162842, -0.5367084741592407, -0.5602536201477051, -0.13971412181854248, -0.12161636352539062, -0.5246081948280334], "net.2.weight": [[-0.14927388727664948, 0.18918347358703613, -0.24746298789978027, -0.29958635568618774, -0.13211211562156677, 0.21253150701522827, -0.061240389943122864, 0.5146518349647522], [0.17866462469100952, -0.25420182943344116, 0.04108265042304993, 0.09864087402820587, -0.056385528296232224, -0.21201461553573608, -0.16680908203125, 0.4773675203323364], [0.35297858715057373, 0.34663084149360657, -0.02442902885377407, 0.035197436809539795, -0.15888549387454987, -0.12461307644844055, 0.11857263743877411, -0.3435877561569214], [0.3382071256637573, -0.4017832279205322, -0.02830970101058483, -0.5524042248725891, -0.039327096194028854, 0.035293370485305786, -0.5488336086273193, 0.1523304283618927], [0.3317486345767975, -0.5853705406188965, -0.21953479945659637, -0.13393080234527588, 0.04758935421705246, -0.23984315991401672, 0.07823215425014496, 0.07163271307945251], [0.01961606927216053, -0.09553273022174835, -0.10284281522035599, 0.11074864864349365, -0.10880056768655777, -0.011789247393608093, 0.058101847767829895, 0.23902004957199097], [0.02105163410305977, 0.11341118067502975, -0.15456964075565338, -0.05610322952270508, -0.2765311896800995, 0.13983957469463348, -0.2160894125699997, 0.09249205887317657], [0.040420468896627426, -0.0703154057264328, -0.06562335789203644, -0.16409721970558167, -0.3200869858264923, -0.5380914807319641, -0.42760905623435974, 0.3427848219871521]], "net.2.bias": [-0.3183072507381439, -0.5560762882232666, -0.4068143963813782, -0.07988004386425018, -0.35207849740982056, -0.37119731307029724, -0.6236100196838379, -0.24693770706653595], "net.4.weight": [[0.5515689849853516, -0.23967322707176208, -0.10723939538002014, -0.07559812813997269, 0.09398330748081207, -0.04151114821434021, 0.18841701745986938, -0.029530063271522522], [0.19979582726955414, 0.06342954933643341, 0.11557343602180481, 0.14429883658885956, -0.2113540768623352, 0.03631904721260071, -0.03230273723602295, 0.020248815417289734], [0.4499911665916443, -0.012676507234573364, 0.14926652610301971, 0.006912112236022949, 0.34420591592788696, -0.29284462332725525, -0.13989874720573425, 0.08722753822803497]], "net.4.bias": [-0.19846795499324799, -0.3514297604560852, -0.7485377788543701]}, "starting_cards": [0, 1, 2], "hidden_sizes": [8, 8], "params": {"epochs": 5000, "learning_rate": 0.25, "discount_factor": 1, "epsilon": 0.1, "replay_buffer_capacity": 64, "update_interval": 20, "minibatch_size": 32, "hidden_sizes": [8, 8]}}}