{"class": "DQNAgent", "payload": {"model_state_dict": {"net.0.weight": [[-0.029113011434674263, -0.1919557899236679, 0.26628637313842773, -0.09728489816188812, -0.2225688099861145, -0.26195114850997925, 0.05751761421561241, -0.2745260000228882, 0.15659457445144653, 0.07925700396299362], [-0.02221381664276123, -0.5316165089607239, -1.1879165172576904, 0.9212175607681274, -0.2762545943260193, 1.1301883459091187, -0.44582468271255493, 0.2584027349948883, -1.6852307319641113, -0.5173804759979248], [-0.24842530488967896, 0.043010979890823364, -0.21127256751060486, 0.046152666211128235, -0.5328651666641235, 0.11341036856174469, -0.26044464111328125, -0.15449737012386322, 0.12896907329559326, -0.2395928055047989], [0.05276067182421684, -0.2083016037940979, 0.012133501470088959, 0.02938898652791977, 0.1660720854997635, -0.26839178800582886, 0.07946832478046417, -0.12377776950597763, 0.131182461977005, -0.3090500235557556], [-0.10851570963859558, 0.03169696033000946, 0.1233685165643692, -0.2852948009967804, -0.0010271593928337097, 0.01642155647277832, -0.0955258309841156, -0.255139023065567, -0.44403502345085144, -0.009450472891330719], [-0.23192864656448364, -0.5349206924438477, -1.4403245449066162, 1.2789134979248047, -0.400553435087204, 0.8809266686439514, -0.5335144996643066, 0.4456080496311188, -2.121502637863159, -0.9680950045585632], [-0.11816467344760895, 0.09008638560771942, -0.27837806940078735, 0.3367069363594055, 0.05980245769023895, -0.22735045850276947, 0.16035811603069305, 0.08823390305042267, 0.04956214129924774, -0.06602697819471359], [0.1744171679019928, 0.10334685444831848, 0.21571359038352966, -0.11356938630342484, -0.1218528226017952, 0.03147938847541809, 0.08149193227291107, -0.3114584684371948, -0.21755093336105347, -0.4073142111301422], [0.3025016486644745, -0.13575930893421173, -0.02532096579670906, -0.27047887444496155, -0.13517513871192932, 0.15517403185367584, -0.26728540658950806, 0.13624846935272217, 0.29672500491142273, -0.2999647259712219], [-0.3728405237197876, -0.29619693756103516, -1.1574480533599854, 0.9055618643760681, -0.0064929574728012085, 1.184043288230896, -0.4825287163257599, 0.33815935254096985, -1.8920080661773682, -0.3245702385902405], [-0.39731425046920776, 0.013062529265880585, 0.17557495832443237, 0.21378502249717712, -0.1811712384223938, 0.0014370307326316833, -0.43825143575668335, 0.04982466995716095, -0.547336995601654, -0.07491897791624069], [-0.19327625632286072, 0.0063240304589271545, -0.06384658068418503, 0.16070745885372162, -0.35869506001472473, 0.17683281004428864, -0.6862941384315491, -0.3576767146587372, -0.2588651478290558, 0.10658594965934753], [0.1625109314918518, -0.026562437415122986, 0.2069542557001114, -0.04784168303012848, 0.032277122139930725, -0.10840220749378204, -0.2105589210987091, 0.12634585797786713, 0.06973029673099518, -0.4143712520599365], [0.1276884824037552, -0.16761693358421326, 0.20766782760620117, -0.13712860643863678, -0.055081807076931, -0.026412490755319595, -0.04490546137094498, 0.18034082651138306, -0.22023464739322662, 0.02906489372253418], [-0.0654451996088028, -0.04390784353017807, 0.09471486508846283, -0.30549436807632446, -0.14472930133342743, -0.1113382875919342, -0.1900985836982727, 0.12978912889957428, 0.20786719024181366, -0.5619287490844727], [-0.3251296281814575, 0.001631118357181549, -0.0541718527674675, -0.3907698094844818, 0.2244870364665985, 0.06278160959482193, -0.2160886526107788, -0.3808608651161194, -0.08720520883798599, -0.57625412940979]], "net.0.bias": [-0.20302334427833557, -0.7203138470649719, -0.42480260133743286, -0.1033988818526268, -0.09453313052654266, -0.042784132063388824, -0.49785834550857544, -0.38724884390830994, -0.2811014652252197, -0.41170889139175415, -0.3340936005115509, 0.016376711428165436, -0.3186091184616089, -0.38890519738197327, -0.09518104791641235, -0.36543020606040955], "net.2.weight": [[-0.09933951497077942, -0.49246668815612793, -0.10648056864738464, 0.19178692996501923, 0.4331583082675934, 0.1441105604171753, 0.04847749322652817, -0.20782455801963806, -0.0971064567565918, -0.5995765328407288, 0.05257295072078705, -0.1517779529094696, -0.30675241351127625, -0.06690791249275208, -0.011241093277931213, 0.04203609377145767], [0.14513525366783142, 0.03406134247779846, -0.10407570004463196, -0.23240414261817932, -0.005979567766189575, -0.2995482385158539, 0.11793404817581177, 0.1255490779876709, 0.07912138849496841, 0.1746349334716797, -0.2159622311592102, 0.031072527170181274, -0.02783617377281189, 0.045024216175079346, -0.3615289330482483, 0.3221856951713562], [0.011080175638198853, 0.09470105916261673, -0.1661168336868286, 0.07365091145038605, -0.4310363829135895, -0.14203494787216187, 0.0926302820444107, -0.03763115406036377, -0.2007497251033783, -0.20333606004714966, -0.01368878036737442, -0.08072471618652344, -0.0601884126663208, -0.08074170351028442, -0.20305511355400085, 0.05833008885383606], [-0.17134645581245422, -0.01347002387046814, -0.24294891953468323, 0.025798991322517395, 0.20734956860542297, -0.20718564093112946, -0.2819173336029053, 0.15166118741035461, 0.13535436987876892, -0.17932435870170593, 0.20081014931201935, -0.16908591985702515, -0.3101225197315216, -0.10752087831497192, 0.2673225998878479, -0.07788097858428955], [0.22942408919334412, 0.004433616995811462, -0.04760423302650452, 0.11348307132720947, 0.004512093961238861, -0.11762844026088715, -0.23099780082702637, -0.474099725484848, 0.08561509847640991, 0.028297357261180878, 0.06459137797355652, 0.1174592673778534, -0.18529605865478516, -0.06044808030128479, -0.025111347436904907, -0.12161805480718613], [0.20174837112426758, -0.2181912660598755, 0.20627743005752563, -0.20470577478408813, -0.3234209418296814, -0.10772382467985153, 0.0050959959626197815, -0.14619719982147217, 0.14772596955299377, -0.22048738598823547, -0.19868230819702148, -0.12267828732728958, 0.0200270414352417, -0.057487547397613525, -0.1886311173439026, -0.23451709747314453], [0.15128576755523682, -0.20212998986244202, 0.06809552013874054, -0.14093072712421417, -0.04895848035812378, -0.4287392497062683, -0.020146749913692474, 0.07831451296806335, 0.20508360862731934, -0.16731500625610352, 0.07739957422018051, -0.3482815623283386, -0.0260099396109581, -0.3011068105697632, -0.021179094910621643, -0.32270005345344543], [-0.013550996780395508, 0.20950794219970703, 0.22739893198013306, 0.026033915579319, -0.37468159198760986, -0.2505926787853241, 0.02703814208507538, 0.13481470942497253, 0.20572173595428467, -0.03684612363576889, -0.23375853896141052, 0.017764464020729065, 0.005107603967189789, 0.17569762468338013, 0.30437061190605164, -0.15779441595077515], [0.07848909497261047, -0.18494832515716553, 0.07316970825195312, -0.1253964900970459, 0.03666573762893677, -0.22791790962219238, 0.0754723846912384, 0.19826245307922363, 0.013455897569656372, -0.19122058153152466, 0.08626604080200195, -0.18944984674453735, 0.12664228677749634, 0.17179015278816223, 0.11959996819496155, -0.1833488643169403], [0.14223048090934753, 0.02301560342311859, -0.1930082142353058, 0.008639313280582428, -0.08147333562374115, -0.3770204484462738, -0.12632639706134796, 0.24247005581855774, 0.20006480813026428, -0.06883739680051804, -0.04284050315618515, -0.3914801776409149, -0.3767952620983124, 0.17141103744506836, 0.13380274176597595, 0.16490700840950012], [-0.029784053564071655, 0.24514129757881165, -0.08631758391857147, 0.24293199181556702, 0.3599691390991211, 0.29165077209472656, -0.42467567324638367, 0.0659230649471283, -0.049811214208602905, -0.09992105513811111, 0.085940420627594, 0.37258005142211914, 0.23727202415466309, 0.12504416704177856, 0.4774467349052429, 0.08768140524625778], [-0.026176154613494873, 0.18763110041618347, 0.1523744761943817, 0.03681644797325134, -0.11286932229995728, -0.312658429145813, 0.0931704044342041, -0.24105212092399597, 0.15561413764953613, -0.12139496207237244, -0.01768156886100769, 0.13881269097328186, -0.14437338709831238, 0.1049833595752716, 0.2355698049068451, -0.10042539238929749], [-0.1676318645477295, 0.1287429928779602, -0.08031851053237915, -0.1717674434185028, -0.010833971202373505, -0.6028523445129395, 0.161871075630188, -0.07083216309547424, -0.1969892978668213, 0.013812676072120667, 0.018342457711696625, -0.32586824893951416, 0.08560831099748611, 0.10913772881031036, 0.03447987884283066, -0.04061361402273178], [0.0520358681678772, 0.08711240440607071, -0.16419151425361633, 0.05522921681404114, 0.2272404134273529, -0.016094103455543518, 0.08095693588256836, -0.2330869436264038, -0.20941585302352905, -0.2654896378517151, 0.17447680234909058, -0.20099037885665894, 0.061848729848861694, -0.030477851629257202, 0.07660791277885437, -0.11002077162265778], [-0.11915943026542664, -0.3531084358692169, -0.10813135653734207, -0.11622445285320282, 0.3121364116668701, 0.13013415038585663, -0.2573870122432709, -0.021994829177856445, 0.23291897773742676, -0.6617614030838013, -0.10409259796142578, 0.08806157112121582, -0.16651591658592224, 0.07760649919509888, 0.18821118772029877, -0.14808616042137146], [-0.011157453060150146, -0.19342371821403503, 0.33186405897140503, -0.5662307143211365, -0.4002169966697693, -0.32448112964630127, -0.3439368009567261, 0.12142932415008545, -0.04668968915939331, -0.17320552468299866, -0.04048805683851242, -0.03738708794116974, 0.27908140420913696, -0.14629021286964417, -0.10904954373836517, -0.005046740174293518]], "net.2.bias": [-0.18844538927078247, -0.4902364909648895, -0.200758159160614, -0.11882869899272919, -0.44939684867858887, -0.3003067970275879, -0.10496124625205994, -0.16876640915870667, -0.21183836460113525, -0.1344696283340454, -1.4735528230667114, -0.272335946559906, -0.27398282289505005, -0.34554341435432434, -0.2793304920196533, -0.06526298820972443], "net.4.weight": [[-0.08296377956867218, -0.26937031745910645, 0.1005278006196022, -0.004149436950683594, 0.23869435489177704, 0.0600329264998436, 0.10936614871025085, 0.0717308521270752, 0.08409219980239868, -0.09810814261436462, -0.23788020014762878, -0.1577633023262024, 0.013140670955181122, 0.03003738820552826, -0.08903655409812927, -0.07584235817193985], [-0.14837142825126648, -0.06520263105630875, -0.09689740091562271, -0.3038407266139984, -0.14511629939079285, -0.06785979866981506, 0.048791252076625824, -0.3916604220867157, -0.22622311115264893, -0.19395661354064941, -0.49483272433280945, 0.24338746070861816, -0.1526622474193573, -0.04640696197748184, -0.011051245033740997, -0.10285897552967072], [-0.054792143404483795, -0.18072962760925293, -0.09846755117177963, 0.08846812695264816, 0.037189483642578125, 0.21839821338653564, 0.002601534128189087, -0.0966104045510292, 0.06400835514068604, -0.0076882317662239075, -0.21630311012268066, -0.057893477380275726, 0.043071575462818146, -0.15845483541488647, 0.00341237336397171, 0.1659916341304779], [-0.128928542137146, 0.21299253404140472, -0.05023960769176483, 0.1695895791053772, 0.23538051545619965, 0.052818119525909424, 0.23871317505836487, -0.010152488946914673, -0.15788429975509644, 0.03904309868812561, -0.34114870429039, -0.1432880461215973, 0.06670167297124863, 0.1347186267375946, -0.06429964303970337, -0.046769700944423676], [0.10061229765415192, -0.03351899981498718, 0.4129735231399536, 0.23530131578445435, -0.037816643714904785, 0.28226807713508606, 0.0008522346615791321, 0.21083858609199524, 0.1558411717414856, -0.15361571311950684, 0.2663668096065521, -0.14163252711296082, -0.24115335941314697, -0.08180275559425354, 0.3210236132144928, 0.24301691353321075]], "net.4.bias": [-1.3051420450210571, -1.2351795434951782, -0.34375762939453125, -0.9847156405448914, -0.10840929299592972]}, "starting_cards": [0, 1, 2, 3, 4], "hidden_sizes": [16, 16]}}