{"class": "DQNAgent", "payload": {"model_state_dict": {"net.0.weight": [[-0.0908796563744545, -0.13266406953334808, -0.14850501716136932, -0.09826574474573135, 0.07419142127037048, -0.023534562438726425, 0.22290293872356415, 0.09245151281356812, -0.15790309011936188, -0.06700445711612701, -0.09826785326004028, 0.08093030005693436, 0.15307772159576416, 0.10901704430580139, -0.1735600084066391, 0.024227164685726166, 0.17603221535682678, 0.19535979628562927, -0.19837376475334167, -0.37851405143737793], [-0.0010901240166276693, -0.12851975858211517, -0.5954084396362305, -0.3203123211860657, 0.008399948477745056, 0.44116508960723877, -0.6810570359230042, -0.04600180685520172, 0.19587849080562592, -0.008095376193523407, -0.007588192354887724, -0.17035099864006042, -0.1402147263288498, -0.05800013244152069, -0.41328364610671997, 0.16892467439174652, 0.28178441524505615, -0.04880690574645996, -0.3329448401927948, -0.7874747514724731], [0.1419004499912262, 0.055827703326940536, -0.1966909021139145, 0.04540832340717316, -0.11379851400852203, 0.01669793576002121, -0.2968214750289917, 0.10461334139108658, 0.036777932196855545, -0.09018433839082718, -0.08135522902011871, 0.22071102261543274, -0.197701096534729, -0.08625835925340652, -0.09370292723178864, -0.03258457034826279, -0.05968647822737694, -0.1073802262544632, -0.05154059827327728, -0.351120263338089], [-0.11651082336902618, -0.22046053409576416, -0.6670746803283691, 0.3841811716556549, -0.1647084504365921, -0.15048249065876007, -0.08090688288211823, 0.37396055459976196, 0.171095073223114, 0.06737068295478821, -0.09870463609695435, 0.12596967816352844, 0.12763819098472595, 0.4498084485530853, 0.045049190521240234, -0.024201571941375732, -0.4594007730484009, -0.456129789352417, -0.052563026547431946, -0.5823215246200562], [-0.07613006234169006, 0.21978461742401123, -0.2318163514137268, 0.026000188663601875, 0.10828405618667603, 0.008786353282630444, -0.29031041264533997, 0.1918407827615738, 0.21702158451080322, -0.0488986074924469, 0.16166679561138153, 0.15158775448799133, -0.10174787044525146, 0.19689947366714478, 0.021756740286946297, -0.08625977486371994, -0.19264240562915802, 0.2187708616256714, -0.09098480641841888, -0.24294553697109222], [-0.22116006910800934, -0.07489914447069168, -0.24173563718795776, 0.030156340450048447, -0.22357062995433807, 0.0737154558300972, -0.1730739325284958, -0.14723455905914307, 0.04239584505558014, 0.16410304605960846, -0.0861172154545784, -0.16771399974822998, 0.1832377314567566, -0.1770079880952835, -0.06075114756822586, -0.21785695850849152, -0.01263953186571598, 0.06134658679366112, 0.01792755164206028, -0.3391261398792267], [0.03255346044898033, 0.03418384864926338, -0.24324503540992737, 0.06523580849170685, -0.007463095709681511, 0.09695616364479065, -0.024267442524433136, 0.0008233773987740278, 0.039734162390232086, 0.09187653660774231, -0.18538349866867065, 0.05038193240761757, -0.10581059753894806, -0.05233920365571976, -0.07933496683835983, -0.054568417370319366, -0.17578840255737305, 0.10170828551054001, -0.13249190151691437, -0.3148742914199829], [0.11957050859928131, -0.11541139334440231, -0.3979032039642334, 0.13560494780540466, -0.02790379524230957, 0.05046771094202995, -0.3581308126449585, -0.09764375537633896, -0.17486818134784698, -0.1551053822040558, -0.09066054224967957, 0.002001972869038582, -0.13889269530773163, -0.22003568708896637, -0.15436309576034546, -0.10175381600856781, -0.09045057743787766, -0.39401930570602417, -0.13647061586380005, -0.12102265655994415]], "net.0.bias": [-0.1984749436378479, -0.8709468841552734, -0.38286611437797546, -0.7158656120300293, -0.317510724067688, -0.08962930738925934, -0.2071152925491333, -0.2947637140750885], "net.2.weight": [[0.017347022891044617, -0.10881546139717102, -0.21145355701446533, -0.28312090039253235, -0.12495238333940506, -0.23145057260990143, -0.5260171890258789, 0.15462687611579895], [0.032027095556259155, 0.38758179545402527, -0.00639515183866024, 0.5893809795379639, 0.27077555656433105, -0.31819385290145874, 0.19453121721744537, -0.3343113362789154], [0.37900644540786743, -0.313458651304245, 0.20753365755081177, -0.43582290410995483, 0.020711883902549744, 0.1718055009841919, 0.50955730676651, 0.502804160118103], [-0.32266491651535034, -0.2211991399526596, -0.36314690113067627, -0.03220103308558464, -0.23030230402946472, -0.3658229410648346, -0.5759679079055786, 0.11453819274902344], [-0.32432305812835693, 0.0022721439599990845, -0.2219119668006897, 0.08201579749584198, 0.2917410731315613, -0.08583525568246841, -0.3528190553188324, 0.21459253132343292], [-0.14990787208080292, -0.15024414658546448, 0.21581251919269562, -0.1951965093612671, -0.10550723969936371, -0.32074201107025146, 0.16160888969898224, -0.28173333406448364], [-0.1905035823583603, 0.027108430862426758, -0.0542680025100708, -0.2104523628950119, -0.31568729877471924, -0.11384835839271545, -0.024950504302978516, -0.12393519282341003], [-0.24780142307281494, -0.3157452940940857, 0.2908574938774109, -0.06804555654525757, 0.3515762686729431, 0.2488260120153427, 0.2740097939968109, 0.10630543529987335]], "net.2.bias": [-0.5071372985839844, -0.4881061315536499, -0.1258438378572464, -0.33543676137924194, -0.4025961756706238, -0.5039487481117249, -0.5399647951126099, -0.7919738292694092], "net.4.weight": [[0.06240924075245857, 0.01766163669526577, -0.038002222776412964, 0.23104599118232727, -0.19812268018722534, -0.13705670833587646, -0.21453386545181274, -0.2296454906463623], [-0.3240840435028076, 0.21808570623397827, -0.13368195295333862, -0.28321245312690735, 0.027365485206246376, 0.0764877200126648, 0.18078996241092682, 0.015573512762784958], [-0.3206327259540558, 0.1518281251192093, -0.024189069867134094, -0.22074446082115173, -0.1017920970916748, 0.054271064698696136, -0.30188965797424316, 0.06388973444700241], [-0.3821719288825989, 0.25144296884536743, -0.11559431254863739, -0.2825118899345398, -0.03379577398300171, 0.2811998128890991, 0.1928863525390625, -0.25193125009536743], [0.08943890035152435, -0.15321217477321625, -0.6597654819488525, -0.20883755385875702, -0.2341478317975998, -0.16734914481639862, 0.0966634750366211, 0.24622829258441925], [0.07563987374305725, -0.33988815546035767, -0.29603224992752075, -0.02191324532032013, -0.00023918335500638932, -0.04898938536643982, -0.1924775391817093, 0.22612136602401733], [-0.22990210354328156, 0.03940194845199585, -0.8294310569763184, 0.3459228277206421, 0.08359184861183167, -0.041775744408369064, 0.07904426753520966, -0.22935189306735992], [0.2748909890651703, 0.27516183257102966, -0.08784480392932892, 0.1616157591342926, 0.5806657671928406, -0.3314504027366638, -0.16644060611724854, 0.24451446533203125], [0.5418967008590698, 0.2783192992210388, 0.25401633977890015, -0.04120195657014847, 0.2844931483268738, -0.2177700698375702, 0.4827428460121155, 0.43940144777297974], [0.21758508682250977, -0.07038822770118713, 0.7886614799499512, -0.19367432594299316, -0.33896952867507935, 0.2812821567058563, -0.2244715392589569, 0.03481978550553322]], "net.4.bias": [-0.3779122829437256, 0.9756318926811218, 0.8073642253875732, 0.6778081655502319, 1.6876447200775146, 1.3890767097473145, 2.0548412799835205, 2.4300670623779297, 2.4517996311187744, 2.5197596549987793]}, "k": 10, "hidden_sizes": [8, 8], "params": {"epochs": 5000, "learning_rate": 0.25, "discount_factor": 1, "epsilon": 0.1, "replay_buffer_capacity": 64, "update_interval": 20, "minibatch_size": 32, "hidden_sizes": [8, 8], "seed": 43}}}