{"class": "DQNAgent", "payload": {"model_state_dict": {"net.0.weight": [[-0.02911396324634552, -0.1919572949409485, 1.0162736177444458, -0.5972847938537598, 0.02743011713027954, -0.26195114850997925, 0.3075175881385803, -0.7745259404182434, 0.15659359097480774, 0.8292418718338013], [0.2777758240699768, -0.23161457479000092, -0.7379229068756104, 0.021208107471466064, -0.22626423835754395, 0.1301780790090561, -0.2958288788795471, -0.14159709215164185, -0.035238683223724365, -0.7173904180526733], [-0.24842530488967896, 0.14349909126758575, -0.36079657077789307, 0.24665357172489166, -0.7323892116546631, 0.21342375874519348, -0.20996879041194916, -0.5540212988853455, 0.2294565588235855, -0.1391047239303589], [0.05276067182421684, -0.35830795764923096, 0.11213363707065582, -0.1206173449754715, 0.01607285439968109, -0.16839182376861572, 0.07946886122226715, -0.2737773656845093, -0.018823891878128052, -0.45905637741088867], [-0.10851570963859558, -0.018306538462638855, 0.1233685165643692, -0.08529900759458542, 0.09897272288799286, 0.11642143875360489, -0.0955258309841156, -0.255139023065567, -0.24403923749923706, -0.05945396423339844], [-0.03193122148513794, 0.16521981358528137, -0.24032476544380188, 0.2790772318840027, 0.0994456335902214, -0.019073016941547394, -0.1335146278142929, -0.054393790662288666, -0.22133761644363403, -0.2679567337036133], [-0.11816467344760895, -0.05990771949291229, -0.27837908267974854, -0.013287588953971863, -0.09019741415977478, -0.22735045850276947, 0.26035815477371216, -0.16176696121692657, -0.30043238401412964, -0.2160211056470871], [0.0744178369641304, -0.002599671483039856, 0.10976822674274445, -0.11951522529125214, -0.22779540717601776, 0.03148224949836731, -0.12445281445980072, -0.31740429997444153, -0.3234963119029999, -0.5132607221603394]], "net.0.bias": [0.302487313747406, -0.3857579529285431, -0.274845689535141, -0.5204786062240601, -0.28517386317253113, -0.2448258101940155, -0.5172850489616394, -0.3196979761123657], "net.2.weight": [[0.08174625039100647, 0.1646275818347931, -0.969561755657196, -0.13392850756645203, 0.2975883185863495, 0.010163038969039917, 0.07823202013969421, 0.5715638995170593], [-0.23038382828235626, 0.15446731448173523, -0.10284281522035599, -0.13925103843212128, -0.10880056768655777, -0.011776447296142578, 0.3081021308898926, -0.010979816317558289], [-0.2289479672908783, 0.11341118067502975, -0.15456964075565338, -0.05609753727912903, -0.2765311896800995, -0.11015491187572479, -0.2160894125699997, 0.09249286353588104], [-0.2095794975757599, 0.17968498170375824, -0.06562335789203644, 0.08590252697467804, -0.3200869858264923, -0.0381145179271698, -0.17760947346687317, 0.09278500080108643], [-0.06830792129039764, 0.19391077756881714, 0.09327404201030731, 0.17011985182762146, 0.39788931608200073, -0.3711749017238617, -0.12360869348049164, -0.23651817440986633], [0.051569536328315735, 0.010323986411094666, -0.1072399914264679, 0.1743960976600647, 0.3439829647541046, -0.04151114821434021, 0.43841564655303955, -0.029530063271522522], [-1.050206184387207, 0.5634282231330872, -0.13442674279212952, 0.14429883658885956, 0.0386333167552948, 0.03631916642189026, 0.21769773960113525, -0.4797494411468506], [-0.3000083863735199, -0.012676717713475227, -0.10073341429233551, 0.256911963224411, 0.09420661628246307, -0.2928459644317627, -0.13989955186843872, 0.08722838759422302]], "net.2.bias": [-0.448763906955719, -0.3514891266822815, -0.2490151822566986, -0.29161083698272705, -0.6296274662017822, -0.814014732837677, -0.2620941400527954, -0.33526086807250977], "net.4.weight": [[0.023012518882751465, -0.24633079767227173, -0.001329377293586731, 0.10799404978752136, -0.13201290369033813, 0.06413078308105469, -0.2212064564228058, -0.3211508095264435], [-0.45247742533683777, 0.017320677638053894, -0.17631365358829498, 0.13012635707855225, 0.11739267408847809, -0.0730057805776596, -0.02100600302219391, 0.15044721961021423], [-0.14048728346824646, -0.13077585399150848, -0.009148184210062027, -0.1530141681432724, 0.43841439485549927, 0.3124348223209381, -0.21073418855667114, -0.2939082980155945], [-0.13732917606830597, -0.28224077820777893, -0.06707805395126343, 0.42679351568222046, -0.1509546935558319, 0.5467990636825562, -0.15722495317459106, -0.049090564250946045], [0.2052522599697113, -0.09325841069221497, -0.14718526601791382, -0.07866960763931274, 0.24154941737651825, -0.28216248750686646, 0.05820345878601074, 0.17755548655986786]], "net.4.bias": [-0.030306413769721985, 0.21277180314064026, 0.4797181487083435, 0.5769481062889099, 0.9586793780326843]}, "k": 5, "hidden_sizes": [8, 8], "params": {"epochs": 5000, "learning_rate": 0.25, "discount_factor": 1, "epsilon": 0.1, "replay_buffer_capacity": 64, "update_interval": 20, "minibatch_size": 32, "hidden_sizes": [8, 8]}}}