{"class": "DQNAgent", "payload": {"model_state_dict": {"net.0.weight": [[0.30367109179496765, 0.03111077845096588, -0.1935010403394699, -0.2304343581199646, 0.23611289262771606, 0.02159048058092594, 0.006630123592913151, 0.13071055710315704, 0.16489727795124054, -0.16278955340385437], [0.009703884832561016, -0.2421107143163681, 0.19876475632190704, -0.1781570464372635, -0.13674962520599365, 0.197767436504364, -0.21773576736450195, 0.13016080856323242, 0.0063076987862586975, -0.14690899848937988], [0.03156721964478493, -0.3160461187362671, 0.2137034386396408, 0.2541238069534302, -0.353473961353302, 0.18292401731014252, 0.2798137366771698, -0.0539180189371109, 0.1368435174226761, 0.2852702736854553], [0.04230596870183945, -0.04376301169395447, -0.15240485966205597, -0.08802568912506104, -0.011247814632952213, 0.22374007105827332, -0.011809241026639938, 0.20312967896461487, 0.23339344561100006, -0.32943421602249146], [-0.04339881241321564, -0.23516157269477844, -0.3009023070335388, -0.055540308356285095, 0.08023637533187866, 0.165936678647995, 0.13232901692390442, 0.22077038884162903, 0.006703108549118042, -0.22529521584510803], [-0.05894724652171135, -0.2657439410686493, 0.284491628408432, -0.21786679327487946, -0.2990453541278839, 0.21665826439857483, 0.12106890976428986, -0.20418837666511536, -0.29223012924194336, 0.04439902305603027], [-0.25056350231170654, -0.5536680221557617, 0.19170604646205902, 0.04535511136054993, 0.27707570791244507, -0.28441381454467773, -0.2950761318206787, 0.1615826040506363, 0.04901579022407532, -0.029131487011909485], [0.2748545706272125, 0.3120481073856354, 0.059576377272605896, -0.4664483666419983, 0.05404724180698395, 0.20765885710716248, -0.19266943633556366, -0.10063844919204712, -0.4771018624305725, 0.3192838728427887]], "net.0.bias": [-0.2952754497528076, -0.07613128423690796, -0.047975167632102966, -0.03923352062702179, -0.3073372542858124, -0.3880109488964081, -0.35659006237983704, 0.2311074435710907], "net.2.weight": [[0.2881079614162445, 0.2853117287158966, -0.09308299422264099, -0.03182647377252579, -0.10927919298410416, -0.07132042944431305, -0.1409514993429184, -0.19939281046390533], [-0.13107876479625702, -0.07223048806190491, 0.00862467847764492, -0.24515043199062347, -0.11170060932636261, 0.1393819898366928, -0.16044925153255463, -0.09562698006629944], [0.01725289598107338, -0.020493904128670692, 0.10185873508453369, 0.3273879885673523, -0.31581801176071167, -0.12324273586273193, -0.1597474217414856, -0.11767243593931198], [-0.14622856676578522, -0.15069973468780518, -0.3408743143081665, -0.5748262405395508, 0.17364278435707092, -0.23375020921230316, -0.11185470223426819, 0.07178102433681488], [0.05509178712964058, -0.2203342765569687, -0.26311883330345154, 0.13385404646396637, 0.04709625244140625, 0.16288159787654877, -0.08851777017116547, -0.08609315752983093], [0.17932577431201935, -0.30052173137664795, -0.21221965551376343, -0.008570834994316101, -0.15432460606098175, 0.06177964806556702, 0.320347398519516, -0.4213082194328308], [0.20239578187465668, -0.2550918161869049, -0.2960357069969177, -0.20615948736667633, 0.05552282556891441, 0.27292919158935547, -0.03440885618329048, -0.08313722908496857], [0.08393839746713638, 0.037113696336746216, -0.05696934461593628, 0.07705216109752655, -0.1007586121559143, 0.06999249756336212, 0.20322100818157196, -0.8159405589103699]], "net.2.bias": [-0.3141523599624634, -0.2509109079837799, -0.3356950581073761, -0.2532736659049988, -0.41640400886535645, -0.3772249221801758, -0.24537768959999084, -0.2780472934246063], "net.4.weight": [[0.04751123487949371, -0.19087287783622742, 0.030113544315099716, -0.21440522372722626, -0.1740381121635437, -0.03443949669599533, -0.19439588487148285, 0.06911998987197876], [-0.12648816406726837, -0.11570650339126587, -0.027644749730825424, -0.22308611869812012, -0.3124360144138336, 0.30499157309532166, 0.1137339398264885, -0.2796439230442047], [-0.3417101502418518, -0.2216491401195526, 0.23230044543743134, -0.016489868983626366, -0.11088671535253525, -0.0738440603017807, -0.3310130834579468, 0.28376954793930054], [0.33409807085990906, -0.16700498759746552, -0.08699729293584824, -0.3128056526184082, -0.1381654590368271, -0.19073721766471863, -0.33875322341918945, 0.061671867966651917], [-0.09393735975027084, -0.14108695089817047, 0.18303680419921875, -0.14321692287921906, 0.018271178007125854, 0.20303615927696228, -0.18848146498203278, 0.07037798315286636]], "net.4.bias": [0.07690362632274628, -0.18414589762687683, -0.07206670939922333, 0.8217461109161377, 0.9848511219024658]}, "k": 5, "hidden_sizes": [8, 8], "params": {"epochs": 5000, "learning_rate": 0.25, "discount_factor": 1, "epsilon": 0.1, "replay_buffer_capacity": 64, "update_interval": 20, "minibatch_size": 32, "hidden_sizes": [8, 8], "seed": 43}}}