{"class": "GRUAgent", "payload": {"model_state_dict": {"gru.weight_ih_l0": [[-0.5905337929725647, 2.283433198928833, -0.3475610613822937, -5.436169147491455, -8.157869338989258, -0.29287028312683105, -1.0089000463485718, -3.7869904041290283, -6.655941486358643, -0.46874526143074036], [3.5286970138549805, -0.1997498869895935, 0.25893542170524597, -1.857569694519043, 0.053644225001335144, 0.14554351568222046, -1.3551075458526611, -0.4635316729545593, 2.0775527954101562, 1.1971957683563232], [-1.77299964427948, 3.230837345123291, 4.2028913497924805, -7.42948579788208, -4.506714344024658, 0.2386150062084198, -5.094721794128418, -3.244920015335083, 2.5784451961517334, -0.2036539912223816], [0.5687911510467529, 3.0851736068725586, 4.25999641418457, -8.422890663146973, -7.519168853759766, -0.188267782330513, -6.0064568519592285, -4.397265434265137, -0.22393618524074554, 2.181161403656006], [-10.127128601074219, 4.130279064178467, 3.263519525527954, -10.78519344329834, 10.555948257446289, 0.13016311824321747, -3.300358295440674, 0.8314902186393738, 2.839115858078003, -4.0755767822265625], [-12.089496612548828, 3.788693904876709, 2.2068839073181152, -11.819260597229004, 12.415806770324707, -0.02132428251206875, -4.116446495056152, -1.7101387977600098, 4.3046393394470215, -5.036055088043213], [0.3271995186805725, 0.43114447593688965, -0.5702746510505676, -4.7664408683776855, -6.346663951873779, -0.2541855275630951, -1.2089533805847168, -1.3538897037506104, -6.384263515472412, -1.819088339805603], [0.9235297441482544, 3.7997548580169678, 4.068634510040283, -9.569473266601562, -8.273895263671875, 0.03519822284579277, -7.53563117980957, -6.256138801574707, 1.453751564025879, 2.042299270629883], [0.6618894934654236, -3.9802088737487793, 2.530217409133911, -2.2850501537323, -2.9734270572662354, 0.2852931618690491, -18.634340286254883, -16.02375602722168, 6.556114673614502, 22.08915138244629], [-29.773605346679688, 7.9155964851379395, 8.647980690002441, 14.110180854797363, 2.923121452331543, 0.3215658366680145, -2.48038387298584, 2.454486608505249, 8.091955184936523, -4.843161106109619], [-3.36757493019104, 3.6715247631073, -0.8220618367195129, -10.225214958190918, -9.062190055847168, 0.11341118067502975, -7.316350936889648, -10.108738899230957, -1.874967098236084, -1.550315499305725], [-7.22089147567749, -0.6094508171081543, -2.6302435398101807, 2.7436294555664062, 2.8247175216674805, 0.08590252697467804, -1.6550636291503906, -2.479785203933716, 0.6923897862434387, -2.1739494800567627], [-4.91102933883667, -0.2123635709285736, -1.9975173473358154, -3.560997724533081, -2.722338914871216, -0.12119735032320023, -2.3999791145324707, -2.708141326904297, -3.107600212097168, -6.033968925476074], [-2.489739418029785, -1.9487221240997314, -0.8692545890808105, -3.320157289505005, -2.480170488357544, -0.029530063271522522, -0.6888250112533569, -1.622648000717163, -3.7347095012664795, -5.096756458282471], [-11.787729263305664, 2.8935720920562744, 2.636368751525879, -8.098769187927246, -2.412585973739624, -0.012676717713475227, -5.859418869018555, -3.3308067321777344, 1.0305721759796143, -8.664813995361328], [-6.639482498168945, 1.6020926237106323, -2.995666027069092, 2.040276527404785, 0.8408394455909729, -0.04161090776324272, -0.719083309173584, -0.8009636402130127, -1.8392417430877686, -2.481996536254883], [1.458717942237854, -2.3582992553710938, 0.1362418830394745, 4.80695915222168, 0.7121933698654175, 0.06413081288337708, 1.6756118535995483, 2.766282558441162, -2.6173088550567627, 2.4524309635162354], [-3.6098411083221436, -0.25604647397994995, -0.6231250166893005, 1.57300865650177, 0.2244621217250824, 0.15044721961021423, 1.2544679641723633, -0.21466532349586487, -2.198964834213257, -1.9429988861083984], [-1.410508632659912, 4.063165664672852, 4.792117595672607, -7.491384506225586, -6.635723114013672, -0.28224077820777893, -6.465613842010498, -6.571412563323975, 4.751809597015381, 1.749570608139038], [0.5514962077140808, 3.5008175373077393, 4.405080318450928, -8.689177513122559, -7.739711284637451, -0.3286692500114441, -6.008683681488037, -4.677279472351074, 0.015875406563282013, 2.88523268699646], [14.43127727508545, -3.463205099105835, -4.560058116912842, 13.216062545776367, -12.056816101074219, 0.06367385387420654, 4.680755615234375, 3.7333743572235107, -6.123259544372559, 5.736359596252441], [12.984417915344238, -2.777752637863159, -3.503572940826416, 12.127742767333984, -11.225240707397461, -0.05321848765015602, 4.419543743133545, 2.773392677307129, -5.055864334106445, 4.866454601287842], [3.108919382095337, -1.6121560335159302, 0.25332075357437134, 4.316930770874023, -0.2479972243309021, 0.12236983329057693, 0.8982595205307007, 4.1326117515563965, -2.6137309074401855, 3.5998613834381104], [0.8939499855041504, 4.458297252655029, 4.4711785316467285, -9.794570922851562, -7.996685981750488, -0.23913341760635376, -7.934142589569092, -6.000026702880859, 2.576446056365967, 3.1708850860595703]], "gru.weight_hh_l0": [[0.324454665184021, 0.14769132435321808, -0.06732255220413208, 0.301910400390625, 0.14780229330062866, 0.11649081110954285, -0.3266802132129669, -0.24621734023094177], [0.26249879598617554, 0.3228611350059509, 0.09134600311517715, 0.16611248254776, -0.2620481848716736, -0.08548649400472641, -0.035512808710336685, -0.17199479043483734], [0.28531527519226074, -0.3085690438747406, 0.29172033071517944, -0.14808151125907898, -0.0331871435046196, 0.27191680669784546, 0.29004621505737305, -0.20675405859947205], [0.2089160680770874, -0.3118162751197815, -0.2809792160987854, -0.1734897494316101, 0.028322512283921242, -0.08129967004060745, 0.01600728929042816, -0.3316572606563568], [0.21395038068294525, -0.2858549654483795, 0.23772288858890533, -0.05788524076342583, 0.07218317687511444, -0.18206582963466644, 0.11292953044176102, 0.11075344681739807], [0.2900320291519165, -0.0951978862285614, 0.2508802115917206, -0.20970231294631958, 0.10463768243789673, -0.28440824151039124, 0.2528904974460602, -0.314945787191391], [-0.019164003431797028, 0.29628896713256836, 0.321591317653656, -0.10463224351406097, -0.24703574180603027, 0.06918990612030029, 0.32105740904808044, 0.19065678119659424], [0.2909344732761383, 0.0892726257443428, -0.1893872767686844, 0.30793413519859314, 0.0072229583747684956, 0.1070549339056015, 0.28905972838401794, -0.223155215382576], [0.11100034415721893, -0.2615564167499542, 0.1034775897860527, -0.1773374080657959, 0.05185318365693092, -0.32232460379600525, 0.10673406720161438, 0.28038543462753296], [0.019029513001441956, -0.2704267203807831, 0.12199860066175461, -0.2679225504398346, 0.17909923195838928, 0.24294796586036682, 0.16913989186286926, -0.25929445028305054], [0.201144278049469, 0.17396976053714752, 0.009874880313873291, 0.15363234281539917, 0.026189588010311127, -0.2504076659679413, -0.17864646017551422, 0.3429044485092163], [0.28293436765670776, 0.18549029529094696, -0.20201949775218964, -0.2708079218864441, -0.25003883242607117, 0.242411807179451, 0.18928979337215424, 0.23318253457546234], [-0.04212101176381111, 0.20525602996349335, -0.12205727398395538, -0.080686554312706, -0.05658724159002304, -0.011605345644056797, -0.17631839215755463, -0.0482046976685524], [-0.2118612825870514, -0.14128053188323975, 0.12158341705799103, 0.24410653114318848, 0.3355603516101837, 0.03541818633675575, -0.03189222514629364, -0.017393119633197784], [-0.03701867163181305, 0.26535043120384216, 0.21549004316329956, 0.052066318690776825, -0.15962132811546326, -0.30076223611831665, 0.13176284730434418, -0.34089916944503784], [0.22007161378860474, -0.17167839407920837, -0.025005513802170753, 0.3377319574356079, -0.06275425106287003, 0.14846888184547424, 0.33314600586891174, -0.14202295243740082], [-0.23706725239753723, 0.1820700764656067, 0.02783377841114998, -0.10149496048688889, 0.1260993629693985, -0.2868941128253937, 0.08749660104513168, -0.10017180442810059], [-0.27858492732048035, 0.16095325350761414, 0.30878210067749023, -0.17800502479076385, 0.26248976588249207, 0.2957652807235718, 0.3315335810184479, 0.22540412843227386], [0.07358983159065247, 0.2646167576313019, -0.23220185935497284, 0.07810590416193008, 0.32136645913124084, 0.11866078525781631, 0.11449039727449417, -0.32963472604751587], [-0.29615873098373413, -0.23403777182102203, 0.2467474490404129, -0.28424331545829773, 0.08746731281280518, -0.043102189898490906, 0.10833995044231415, -0.01417179312556982], [-0.1685168743133545, 0.06631056219339371, -0.15292325615882874, -0.16436153650283813, 0.15863002836704254, 0.3255785405635834, -0.0810752809047699, -0.031105386093258858], [0.32939717173576355, -0.22876887023448944, -0.28855785727500916, 0.12456344813108444, -0.09407024830579758, 0.10975216329097748, -0.2993209660053253, 0.21481190621852875], [-0.01577902026474476, -0.27354273200035095, 0.3279055058956146, -0.23509342968463898, -0.14173449575901031, -0.034523408859968185, 0.22070281207561493, 0.1717269867658615], [-0.06602919101715088, 0.32073453068733215, 0.22558321058750153, 0.22996601462364197, 0.11183914542198181, -0.3483063578605652, -0.2945998013019562, 0.2756962180137634]], "gru.bias_ih_l0": [0.1001749336719513, 4.326488018035889, 6.28231143951416, 7.484291076660156, 4.554364204406738, 5.724367618560791, 0.5186426043510437, 6.887073516845703, -12.878168106079102, 0.4301436245441437, -19.538747787475586, -19.53575897216797, -19.5042781829834, -20.03362274169922, -14.538890838623047, -19.19636344909668, 10.20914363861084, -4.588239669799805, 5.44476842880249, 7.901560306549072, -6.001391887664795, -5.951549053192139, 7.2889251708984375, 7.74092435836792], "gru.bias_hh_l0": [0.06132545322179794, 4.032517433166504, 5.805607795715332, 7.287812232971191, 4.925646781921387, 5.908703327178955, 0.11689706891775131, 6.735655784606934, -12.78842544555664, 0.38668301701545715, -19.571754455566406, -19.580310821533203, -20.029123306274414, -19.499496459960938, -14.357707977294922, -19.79932403564453, 5.087319850921631, -4.623027801513672, 9.59279727935791, 8.291614532470703, -6.132840633392334, -6.9451375007629395, 2.904890775680542, 7.959570407867432], "fc.weight": [[1756.440673828125, -1774.9449462890625, -444.8157653808594, -366.2882385253906, 1669.1334228515625, 1667.048828125, 1763.7200927734375, -351.29052734375], [-1943.18212890625, 1974.995361328125, -1657.3070068359375, -1785.33447265625, 453.279296875, 452.1356506347656, -1954.5235595703125, -1831.465087890625], [-1897.7073974609375, 1924.536865234375, -1632.17822265625, -1745.5809326171875, 444.8507385253906, 448.5342102050781, -1903.8446044921875, -1717.1007080078125], [-1925.3001708984375, 1927.5902099609375, 318.4349060058594, 233.60227966308594, -1493.74658203125, -1486.79345703125, -1931.6834716796875, 222.2210693359375], [-1797.6900634765625, 1793.961669921875, 410.2174072265625, 351.8453063964844, 700.4225463867188, 698.1343383789062, -1797.9482421875, 330.52655029296875]], "fc.bias": [1775.933837890625, -1975.281982421875, -1924.8831787109375, -1927.2767333984375, -1794.5499267578125]}, "k": 5, "hidden_size": 8, "layer_n": 1, "params": {"epochs": 1000, "learning_rate": 0.1, "discount_factor": 1, "epsilon": 0.1, "replay_buffer_capacity": 64, "update_interval": 20, "minibatch_size": 32, "hidden_size": 8, "layer_n": 1}}}