{"class": "GRUAgent", "payload": {"model_state_dict": {"gru.weight_ih_l0": [[1.5271962881088257, 1.185145616531372, 1.4242206811904907, 0.2852042317390442, -0.6442205905914307, -0.2205544114112854, -0.2507680356502533, 0.7514568567276001, 1.8345917463302612, 1.0371830463409424], [3.0183982849121094, 2.236259937286377, -0.7267901301383972, 1.8392120599746704, -3.1554014682769775, -0.266850084066391, 0.13140401244163513, 0.8296610116958618, 1.3296211957931519, 1.2622331380844116], [1.0669043064117432, 2.1285433769226074, 1.2457386255264282, 0.2024156153202057, -0.6422987580299377, -0.2841140627861023, 0.07128040492534637, 0.3599737882614136, 1.780340552330017, 1.7129474878311157], [-12.504897117614746, 7.434638977050781, 2.2797129154205322, -15.212797164916992, 5.915147304534912, 0.2497684210538864, -11.001816749572754, -7.6688151359558105, 5.3846659660339355, 1.2523736953735352], [-19.4692325592041, 12.456575393676758, -2.26061749458313, -7.101064205169678, 16.033287048339844, -0.1353643834590912, 7.661602973937988, -0.26908034086227417, -2.5480194091796875, -5.230461597442627], [-26.108518600463867, 5.731592178344727, 2.779557943344116, -1.1696109771728516, 3.780341148376465, -0.03964884579181671, -16.802610397338867, 6.207492828369141, 0.8189921975135803, -4.262916088104248], [1.64316725730896, -5.974084854125977, -2.964343786239624, -3.382143020629883, -1.5451422929763794, 0.23716507852077484, -14.148505210876465, -6.475521087646484, 3.322481155395508, 3.8062849044799805], [-8.04911994934082, -4.248680114746094, 3.831913948059082, 4.401917934417725, -11.421302795410156, 0.08653738349676132, -18.343841552734375, -8.033638954162598, 5.608291149139404, 4.642755031585693], [-9.800017356872559, 7.710146903991699, 14.892104148864746, 15.841730117797852, -6.004212856292725, 0.02006893791258335, -15.327752113342285, 9.640917778015137, 21.006135940551758, 7.712695598602295], [22.564083099365234, -6.311908721923828, -28.543039321899414, -7.63488245010376, 22.260635375976562, 0.16891583800315857, -34.49394607543945, 11.077750205993652, 11.736899375915527, 14.403380393981934], [-10.277918815612793, 8.573184967041016, 15.135698318481445, 15.369206428527832, -6.48474645614624, -0.29644709825515747, -15.428595542907715, 9.515448570251465, 20.57247543334961, 7.660862922668457], [-8.660456657409668, 0.779689610004425, -4.69089412689209, -4.411327838897705, -3.0647993087768555, -0.13501852750778198, -6.338534355163574, -4.125607967376709, -9.19626235961914, -0.5150075554847717], [-12.593097686767578, -6.821805000305176, -9.619741439819336, -5.934736251831055, -5.780118465423584, 0.34699782729148865, -4.8558149337768555, -20.269786834716797, -22.81540870666504, 6.518649101257324], [29.613758087158203, -17.80274772644043, -6.378689289093018, -23.300189971923828, -15.13337230682373, -0.02592524327337742, -14.300785064697266, -14.889217376708984, 2.2912726402282715, -5.492876052856445], [-5.189077377319336, 0.4853321313858032, -5.672641277313232, -5.986429691314697, 2.4038381576538086, 0.0897151306271553, -2.1863625049591064, -7.668811798095703, -4.008358955383301, -0.11302251368761063], [-32.13086700439453, -2.1880879402160645, 24.124256134033203, 20.009004592895508, 9.582939147949219, 0.16812996566295624, 39.38466262817383, -1.9879121780395508, -5.868411540985107, -12.11811637878418], [-1.6249850988388062, -1.4963297843933105, -0.9413818120956421, -0.17157241702079773, 0.20955833792686462, -0.08196377754211426, -0.07820736616849899, -0.8067683577537537, -2.195194959640503, -1.3507976531982422], [-2.3503522872924805, -3.84598445892334, -0.3738817274570465, -3.420081615447998, 2.1105542182922363, 0.01803206466138363, -0.07252509146928787, -1.7511780261993408, -3.037606954574585, -2.2029995918273926], [-1.6580877304077148, -1.817110538482666, -1.4478715658187866, -0.34466487169265747, 0.5240529179573059, -0.06917107105255127, -0.07846256345510483, -0.6487732529640198, -2.304872751235962, -2.411222457885742], [13.455598831176758, -8.140923500061035, -1.6531275510787964, 13.960171699523926, -5.557507514953613, -0.2064814567565918, 11.726278305053711, 7.969481468200684, -5.142914772033691, -1.7571232318878174], [21.29779052734375, -12.967103958129883, 3.094656229019165, 5.749138832092285, -12.510716438293457, -0.1442490667104721, -5.224635124206543, 2.1228342056274414, 3.32463002204895, 5.010136127471924], [-26.123809814453125, 6.108489990234375, 3.1546263694763184, -1.1613997220993042, 3.9949307441711426, 0.1651991605758667, -16.858041763305664, 5.8018107414245605, 1.069094181060791, -4.463245868682861], [0.6494249701499939, -6.205867767333984, -2.1603035926818848, -3.769768238067627, -1.2981306314468384, 0.25358179211616516, -13.767111778259277, -5.808995723724365, 3.695276975631714, 4.007988929748535], [8.256023406982422, 5.682534217834473, -3.4719653129577637, -4.639227390289307, 11.014534950256348, -0.3407387137413025, 18.60771942138672, 8.771913528442383, -5.459157943725586, -4.233650207519531]], "gru.weight_hh_l0": [[-0.27052178978919983, 0.3311936855316162, -0.1514553725719452, 0.1836768537759781, 0.05411587655544281, -0.3209317624568939, -0.03929367661476135, -0.2794742286205292], [-0.11334788054227829, -0.3523901700973511, 0.2753296494483948, 0.04842778295278549, -0.2629414498806, -0.0691959336400032, 0.2863694131374359, 0.29792729020118713], [0.146521657705307, 0.14168164134025574, 0.26463770866394043, -0.1865711212158203, -0.05324504151940346, 0.19431446492671967, -0.08397321403026581, 0.04604395478963852], [-0.31138336658477783, 0.09615971893072128, -0.3479803800582886, -0.23547060787677765, -0.2899891138076782, 0.053186919540166855, -0.3357270061969757, -0.3155672252178192], [0.33465611934661865, 0.05208056420087814, -0.10438147187232971, -0.006231453735381365, 0.12769752740859985, 0.28849804401397705, 0.044255539774894714, 0.3296700716018677], [0.1463097482919693, 0.12256792187690735, 0.24573230743408203, 0.18425877392292023, 0.15710659325122833, -0.14005637168884277, 0.16738489270210266, -0.021316736936569214], [-0.061862763017416, -0.15129618346691132, 0.13609106838703156, -0.09348613023757935, 0.006319287698715925, 0.03799959644675255, 0.2529640793800354, 0.17887704074382782], [-0.30918025970458984, -0.2992635667324066, -0.32348641753196716, 0.03256649151444435, 0.1731429547071457, -0.3137424886226654, 0.018770309165120125, 0.1253318339586258], [0.0855521559715271, -0.3325183689594269, 0.15412722527980804, -0.1620797961950302, -0.2820703387260437, 0.3478013873100281, 0.3239567279815674, 0.03836054354906082], [-0.09573913365602493, 0.19574463367462158, -0.24588575959205627, -0.3181682825088501, -0.21075502038002014, -0.29270315170288086, 0.2797664701938629, 0.08922828733921051], [-0.16717024147510529, 0.1871945858001709, -0.23313426971435547, -0.3353348970413208, -0.021206945180892944, -0.08055429905653, -0.0994584709405899, 0.27965492010116577], [0.055193111300468445, 0.11034512519836426, -0.20755475759506226, 0.04568199813365936, -0.022871745750308037, 0.2160779982805252, -0.0704600065946579, 0.3517235815525055], [0.29670602083206177, -0.06358884274959564, -0.10094405710697174, -0.1807885617017746, -0.07119635492563248, -0.1574130803346634, -0.15021318197250366, -0.2815902829170227], [0.04144750535488129, 0.27494874596595764, 0.11858272552490234, 0.22725297510623932, 0.27920082211494446, -0.14016512036323547, 0.15388332307338715, -0.02491574175655842], [0.028928078711032867, -0.11184433102607727, 0.26905742287635803, 0.27778351306915283, -0.27632009983062744, 0.2517684996128082, -0.15926450490951538, 0.23903770744800568], [-0.09711392223834991, 0.03392383083701134, -0.19570964574813843, 0.17786893248558044, 0.2892700731754303, -0.3039456903934479, 0.31278571486473083, -0.09196282178163528], [-0.32636067271232605, -0.17842143774032593, -0.19241110980510712, -0.02683110535144806, -0.2214779406785965, -0.23801365494728088, -0.13153770565986633, 0.25037407875061035], [0.21151627600193024, -0.141697496175766, -0.13483884930610657, 0.04234447330236435, 0.1597132384777069, -0.05587555095553398, 0.33466532826423645, 0.21333187818527222], [0.25661566853523254, -0.20708760619163513, 0.34852540493011475, 0.19784286618232727, -0.02000807784497738, 0.3073580861091614, 0.09300582855939865, -0.006345755886286497], [0.3199954628944397, 0.024603011086583138, -0.0779527872800827, -0.12657026946544647, -0.09031740576028824, 0.3462805151939392, 0.043255772441625595, -0.25992247462272644], [0.1749923676252365, -0.2561972141265869, 0.06192164123058319, 0.24289730191230774, 0.21665191650390625, -0.1516205072402954, -0.17673778533935547, 0.31373417377471924], [0.27506759762763977, -0.3447476327419281, 0.2928110659122467, 0.007920825853943825, 0.28005310893058777, 0.15320880711078644, -0.15612709522247314, 0.3490537405014038], [-0.2298182100057602, 0.13658520579338074, 0.23330479860305786, -0.0692833885550499, -0.1458951085805893, -0.05130080506205559, -0.0704318955540657, 0.3435359597206116], [-0.22951732575893402, -0.1860736608505249, -0.1316804140806198, -0.3150891661643982, 0.18990114331245422, 0.28264936804771423, 0.1652953028678894, -0.1104443371295929]], "gru.bias_ih_l0": [4.417456150054932, 3.336081027984619, 3.7100024223327637, 8.222332954406738, 7.15363073348999, 7.340466022491455, 8.458122253417969, 9.746925354003906, -28.02552604675293, -21.98781394958496, -27.62782096862793, -17.85921859741211, -1.8082386255264282, -29.502185821533203, -18.016578674316406, -28.634851455688477, -4.372154235839844, -4.389829158782959, -4.550951957702637, -10.952906608581543, -10.575723648071289, 7.796395778656006, 9.492472648620605, -10.555466651916504], "gru.bias_hh_l0": [4.049002647399902, 3.354552745819092, 3.8133797645568848, 7.7744460105896, 7.299529075622559, 7.408241271972656, 8.033000946044922, 9.683212280273438, -28.417699813842773, -21.787771224975586, -27.785585403442383, -18.018173217773438, -1.886574625968933, -29.24401092529297, -18.099258422851562, -28.527189254760742, -4.666698455810547, -4.7648606300354, -4.53683614730835, -12.152226448059082, -11.259889602661133, 8.047929763793945, 10.024413108825684, -10.991700172424316], "fc.weight": [[-9066.763671875, -9027.8662109375, -9066.0322265625, -3199.189208984375, -8328.1708984375, 3020.880126953125, 4289.2509765625, -3512.710693359375], [-9539.978515625, -9505.470703125, -9539.498046875, -3727.469970703125, -9041.142578125, 3649.622314453125, 3390.2900390625, -2714.291748046875], [10021.91796875, 10006.3212890625, 10021.2958984375, 12390.2529296875, 9309.275390625, -12372.09765625, -12603.896484375, 12015.4111328125], [-9314.9560546875, -9329.87109375, -9313.9375, -3085.57080078125, -8711.154296875, 3435.512451171875, 3338.78271484375, -3900.51904296875], [-9377.17578125, -9343.845703125, -9376.109375, -3912.576171875, -9041.62890625, 3554.287353515625, 3298.11083984375, -2703.85986328125]], "fc.bias": [9066.8642578125, 9540.6259765625, -10022.427734375, 9316.5537109375, 9377.9326171875]}, "k": 5, "hidden_size": 8, "layer_n": 1, "params": {"epochs": 5000, "learning_rate": 0.1, "discount_factor": 1, "epsilon": 0.1, "replay_buffer_capacity": 64, "update_interval": 20, "minibatch_size": 32, "hidden_size": 8, "layer_n": 1, "seed": 43}}}