{"class": "DQNAgent", "payload": {"model_state_dict": {"net.0.weight": [[-0.029113011434674263, -0.4419557452201843, 0.26628637313842773, -0.09728489816188812, -0.2225688099861145, -0.26195114850997925, 0.05751761421561241, -0.2745260000228882, 0.15659457445144653, -0.170742928981781], [0.277773916721344, -0.23161447048187256, 0.012076929211616516, 0.02120811678469181, 0.023733872920274734, 0.1301780790090561, -0.0458289310336113, -0.14159707725048065, 0.21475940942764282, -0.21739229559898376], [-0.24842530488967896, -0.10697588324546814, -0.11127270013093948, -0.0038208067417144775, -0.23286542296409607, 0.21342375874519348, -0.2104446440935135, -0.05449749901890755, 0.22898195683956146, -0.3895796537399292], [0.05276067182421684, -0.3583078980445862, 0.11213363707065582, -0.12061731517314911, 0.01607288420200348, -0.16839182376861572, -0.17053082585334778, -0.023777639493346214, -0.018823862075805664, -0.4590563178062439], [-0.10851570963859558, 0.23169445991516113, 0.1233685165643692, -0.3352964222431183, 0.09897272288799286, 0.11642143875360489, -0.34552323818206787, -0.255139023065567, -0.24403923749923706, 0.19054704904556274], [-0.03193122148513794, -0.08478011190891266, -0.24032476544380188, 0.2790772318840027, 0.0994456335902214, -0.019073016941547394, -0.1335146278142929, -0.054393790662288666, -0.22133761644363403, -0.5179566740989685], [-0.11816467344760895, 0.19009186327457428, -0.27837908267974854, -0.013287782669067383, -0.34019720554351807, -0.22735045850276947, 0.010358288884162903, 0.08823294937610626, -0.5504324436187744, 0.033978477120399475], [0.0744178369641304, -0.046653032302856445, 0.31571364402770996, 0.08643019199371338, -0.021849988028407097, 0.03148224949836731, 0.0814926028251648, -0.11145889014005661, -0.11755088716745377, -0.5573140978813171]], "net.0.bias": [0.3025011122226715, -0.13575930893421173, -0.27532070875167847, -0.5204785466194153, -0.535172700881958, -0.24482588469982147, -0.26728546619415283, -0.11375145614147186], "net.2.weight": [[0.33174848556518555, -0.3353707790374756, 0.28043752908706665, -0.133929044008255, 0.047589436173439026, 0.5101526975631714, 0.3282315731048584, 0.5715651512145996], [0.01961606927216053, 0.15446731448173523, -0.10284281522035599, -0.3892488479614258, -0.10880056768655777, 0.2382107377052307, 0.05810229480266571, 0.23902004957199097], [-0.22894801199436188, 0.11341118067502975, -0.15456964075565338, -0.05609753727912903, -0.2765311896800995, -0.11015492677688599, -0.2160894125699997, 0.09249278903007507], [0.040420517325401306, 0.1796843558549881, -0.3156232535839081, 0.08590252697467804, -0.3200873136520386, -0.038106516003608704, -0.427609384059906, 0.3427850306034088], [-0.06830711662769318, 0.19391077756881714, 0.3431851267814636, 0.17011985182762146, -0.10210961103439331, -0.12119735032320023, -0.12360869348049164, 0.0030623823404312134], [0.30156928300857544, -0.2396726906299591, -0.10723982751369476, -0.07559812813997269, 0.09398302435874939, -0.04151114821434021, -0.3115832507610321, -0.029530063271522522], [-0.3002057373523712, 0.31343045830726624, -0.1344265341758728, -0.1056998074054718, -0.21136660873889923, -0.21368025243282318, -0.03230215609073639, -0.47974950075149536], [-0.3000085949897766, -0.012676717713475227, 0.14926639199256897, 0.006912946701049805, 0.34420663118362427, -0.5428096652030945, -0.1398995816707611, 0.08722829818725586]], "net.2.bias": [-0.1987617015838623, -0.35148894786834717, -0.24901467561721802, -0.2916109561920166, -0.37979134917259216, -0.5640119910240173, -0.5120933651924133, -0.33526089787483215], "net.4.weight": [[0.023010045289993286, -0.24633079767227173, -0.0014607906341552734, 0.10799404978752136, 0.11791082471609116, 0.06413081288337708, -0.22120647132396698, -0.3211508095264435], [-0.45247748494148254, -0.232679083943367, -0.17631366848945618, 0.13012580573558807, -0.13260729610919952, -0.32300594449043274, -0.02100592851638794, 0.15044721961021423], [-0.14048729836940765, 0.11922402679920197, -0.009148184210062027, -0.1530141681432724, 0.18841452896595, 0.06243482232093811, 0.03926505148410797, -0.043908387422561646], [0.3626706600189209, -0.28224077820777893, -0.06707805395126343, -0.07320629060268402, 0.0990445464849472, 0.04679914191365242, 0.09277454018592834, 0.4509090781211853], [0.4552522301673889, -0.09325841069221497, -0.14718526601791382, -0.07866959273815155, -0.008450569584965706, -0.03217481076717377, 0.30820342898368835, 0.4275554418563843]], "net.4.bias": [-0.27977877855300903, -0.5367602109909058, -0.27033931016921997, 1.0769864320755005, 0.7087590098381042]}, "k": 5, "hidden_sizes": [8, 8], "params": {"epochs": 5000, "learning_rate": 0.25, "discount_factor": 1, "epsilon": 0.1, "replay_buffer_capacity": 64, "update_interval": 20, "minibatch_size": 32, "hidden_sizes": [8, 8], "seed": 43}}}