{"class": "GRUAgent", "payload": {"model_state_dict": {"gru.weight_ih_l0": [[5.910272121429443, -3.1223530769348145, -5.39876127243042, 15.811511039733887, -6.054318904876709, 0.39682090282440186, 2.0658466815948486, -0.6070782542228699, 4.578572750091553, 0.027282655239105225], [3.697786331176758, -10.868613243103027, -2.409971237182617, -6.256972789764404, 3.4383106231689453, -2.5921475887298584, -4.653356552124023, -7.127317428588867, -6.193740367889404, 8.420729637145996], [1.0704089403152466, 3.8306217193603516, -2.9601261615753174, 3.071255683898926, -0.6057416200637817, -0.577537477016449, 8.475321769714355, -13.251459121704102, 7.320611953735352, 2.520132541656494], [2.926370143890381, -11.095758438110352, -3.5644450187683105, -4.629616737365723, 2.67354416847229, -2.635496139526367, -4.928756237030029, -6.322345733642578, -8.096476554870605, 9.568220138549805], [1.3638001680374146, 15.36009407043457, 1.6411935091018677, -17.13681983947754, -0.5987787842750549, 7.9157633781433105, 1.625274896621704, -2.0981104373931885, 1.7885119915008545, -8.856410026550293], [6.4881181716918945, 2.2258734703063965, -7.302180290222168, -13.058050155639648, 6.772066593170166, -0.47270363569259644, 2.4898178577423096, -3.349040985107422, -3.520334243774414, 0.5606484413146973], [3.0274438858032227, -8.001619338989258, -4.108416557312012, -6.43525505065918, 3.5309648513793945, -3.8287062644958496, -4.925892353057861, -5.380081653594971, -4.559342384338379, 7.376570701599121], [5.273507118225098, 9.914473533630371, -9.958588600158691, -11.7678861618042, -0.300451397895813, -0.08917240798473358, -2.914407253265381, -4.567678928375244, -0.10712496936321259, 1.1241446733474731], [1.1611086130142212, 11.715718269348145, 1.5100271701812744, -24.11847686767578, -2.2785043716430664, 8.957242965698242, -12.409907341003418, -6.3835768699646, -2.7510147094726562, 1.0065985918045044], [-0.9321727752685547, -2.9918105602264404, -2.757145881652832, -4.647353172302246, -0.5762792825698853, -0.6783356666564941, -1.1909782886505127, -2.4379472732543945, -2.0866785049438477, -5.909131050109863], [2.6270265579223633, -2.848804235458374, -6.5661940574646, 19.010086059570312, 3.4179129600524902, 1.2783836126327515, 3.180574893951416, 12.70553970336914, -2.759129524230957, 2.098344087600708], [-2.242431402206421, -2.890113353729248, -3.3771889209747314, -3.278493881225586, -0.5778670310974121, -0.6314675211906433, -0.9261478781700134, -1.9827545881271362, -0.9722229242324829, -7.351890563964844], [-1.2937172651290894, -5.567564010620117, -20.73661231994629, -8.726025581359863, -6.8741278648376465, 1.8968069553375244, -9.726663589477539, -3.9038965702056885, -3.4187748432159424, -28.718971252441406], [2.059735059738159, -1.211125135421753, -7.716405868530273, -5.1462836265563965, -2.673870086669922, 0.07900768518447876, -4.166087627410889, -2.8717827796936035, -7.307625770568848, -1.1206233501434326], [-1.8922909498214722, -2.3958821296691895, -2.405094861984253, -2.0734918117523193, -0.6580566763877869, -0.9218064546585083, -1.0881450176239014, -0.8821017146110535, -0.8169716596603394, -5.916922569274902], [2.03660249710083, -4.219773292541504, -1.9714226722717285, -9.311897277832031, -1.4500761032104492, -0.06851507723331451, -0.723689615726471, -3.6528713703155518, -3.778536796569824, -5.7772088050842285], [-4.762911319732666, 3.333984375, 4.364937782287598, -18.033985137939453, 8.082452774047852, 0.9164506793022156, -3.3014144897460938, 0.3271408975124359, -9.784035682678223, 4.3948211669921875], [-3.899653434753418, 10.021761894226074, 2.8613994121551514, 6.3093438148498535, -3.578238010406494, 2.7623867988586426, 5.195356845855713, 7.031839370727539, 6.825957298278809, -8.8251314163208], [1.3634918928146362, 3.967617988586426, -2.722377300262451, 3.3204915523529053, -0.18113982677459717, -0.18586942553520203, 8.070138931274414, -13.496772766113281, 7.465505599975586, 2.845869779586792], [3.0156660079956055, -10.910755157470703, -3.442063331604004, -4.690659999847412, 2.685410737991333, -3.0684688091278076, -5.033635139465332, -6.551635265350342, -8.563203811645508, 9.759437561035156], [-3.313521385192871, -22.77510643005371, -4.524721145629883, 23.495769500732422, -0.9286723732948303, -6.927880764007568, -5.3751325607299805, -3.0883212089538574, -1.6841578483581543, 8.267627716064453], [-2.984835386276245, 1.3868039846420288, -8.770955085754395, -11.669093132019043, 3.4628186225891113, -2.841383934020996, -3.936446189880371, -12.476786613464355, -12.72573471069336, 13.537020683288574], [-3.1779987812042236, 7.923877239227295, 3.9297099113464355, 6.411504745483398, -3.94870662689209, 3.505577802658081, 4.875467300415039, 5.756068706512451, 4.354274272918701, -7.458428382873535], [0.5732520818710327, 3.246279716491699, -9.801557540893555, -11.025278091430664, -0.3565845489501953, -2.999685764312744, -3.567016839981079, -10.98077392578125, -8.144481658935547, 8.577112197875977]], "gru.weight_hh_l0": [[-0.34725087881088257, 0.02923642471432686, 0.3319731056690216, 0.024092823266983032, -0.09810513257980347, 0.14216794073581696, -0.0058681899681687355, 0.33756473660469055], [0.2263205200433731, 0.29608792066574097, 0.10144273936748505, 0.1189243271946907, -0.13874585926532745, -0.33641305565834045, -0.22311100363731384, 0.01858368329703808], [0.18390056490898132, -0.12591670453548431, -0.1072574034333229, -0.20982833206653595, 0.1906314641237259, 0.28722959756851196, -0.288276344537735, -0.346646785736084], [0.18686892092227936, 0.2104225605726242, -0.27105051279067993, -0.31992778182029724, -0.13287556171417236, -0.27553626894950867, 0.34420183300971985, 0.20836225152015686], [-0.20705056190490723, -0.015630707144737244, 0.2787969708442688, -0.07748875021934509, 0.16867361962795258, 0.0021668116096407175, 0.12511084973812103, 0.19401521980762482], [0.30886170268058777, 0.0036791248712688684, -0.2780494689941406, 0.09052148461341858, 0.13054703176021576, -0.16447782516479492, -0.22329479455947876, 0.0609123520553112], [-0.0826680064201355, 0.14624623954296112, 0.23474711179733276, -0.3237413465976715, 0.15979577600955963, 0.07037179172039032, 0.23983587324619293, 0.33287665247917175], [0.21611736714839935, 0.33759140968322754, 0.1270635575056076, -0.2232821136713028, -0.08620446175336838, 0.22464974224567413, -0.2026398926973343, 0.23575176298618317], [0.19052091240882874, 0.1919112503528595, 0.21669894456863403, -0.2819766700267792, -0.04740281403064728, 0.30119019746780396, 0.3327662944793701, -0.053480807691812515], [0.25776687264442444, -0.14021602272987366, 0.015328682027757168, 0.22039268910884857, -0.217245414853096, 0.09385879337787628, -0.20029863715171814, -0.34104233980178833], [-0.1156865656375885, -0.1116894856095314, 0.060835644602775574, -0.28935396671295166, -0.332673043012619, -0.061369940638542175, 0.16292698681354523, -0.0116716418415308], [0.3023547828197479, 0.20031018555164337, -0.23289386928081512, -0.28882673382759094, 0.14268608391284943, 0.26344937086105347, -0.09848011285066605, -0.03979593887925148], [-0.27852264046669006, 0.07153841853141785, -0.11059387773275375, 0.33840087056159973, 0.11742191761732101, 0.08857274055480957, 0.040034614503383636, 0.28000015020370483], [0.24633167684078217, -0.3362264037132263, -0.07005725055932999, -0.29096662998199463, -0.23892100155353546, 0.327418714761734, 0.2565060555934906, 0.10539919137954712], [-0.1810060441493988, 0.16198450326919556, 0.14898443222045898, 0.06434757262468338, 0.11510662734508514, -0.022237224504351616, 0.3072599172592163, -0.16286548972129822], [0.17204436659812927, -0.3058409094810486, -0.3251594603061676, -0.1327376663684845, -0.18828131258487701, 0.04139743372797966, -0.3074630796909332, -0.16542300581932068], [0.1509261280298233, 0.05398484319448471, -0.2896716296672821, -0.21366892755031586, -0.141719788312912, -0.2501876950263977, -0.3230632543563843, -0.12209292501211166], [0.1404026597738266, 0.0757969319820404, -0.2944899797439575, -0.0527779683470726, 0.0983375757932663, -0.1379871368408203, -0.3458569049835205, -0.17193739116191864], [0.03925367817282677, 0.27935266494750977, 0.11237247288227081, -0.09622610360383987, -0.20313823223114014, 0.042475003749132156, 0.17821495234966278, -0.017011648043990135], [-0.33310550451278687, -0.12951575219631195, 0.12003818154335022, 0.1547899842262268, 0.00856887549161911, 0.23351983726024628, -0.04925575479865074, -0.1398916244506836], [0.3059968650341034, -0.3036487400531769, 0.2198711633682251, 0.07913340628147125, 0.0011332023423165083, -0.31864672899246216, 0.3401348888874054, 0.208750382065773], [0.1479748785495758, -0.31489303708076477, 0.06343888491392136, 0.02574586495757103, -0.11051952838897705, 0.2699437737464905, 0.09992381185293198, -0.06743234395980835], [-0.13503141701221466, -0.22988171875476837, -0.19469524919986725, 0.24230808019638062, -0.049501389265060425, -0.27120712399482727, 0.18382693827152252, 0.22005914151668549], [0.07094220817089081, -0.23454783856868744, 0.14318729937076569, 0.3045670688152313, 0.2923438251018524, 0.15487545728683472, -0.017944231629371643, 0.1880059540271759]], "gru.bias_ih_l0": [6.765788555145264, 10.839715003967285, 11.070507049560547, 10.525079727172852, 4.740067005157471, 6.425260543823242, 9.846172332763672, 5.4599928855896, -2.0021493434906006, -19.45151710510254, -15.415592193603516, -19.051708221435547, -17.435155868530273, -19.089963912963867, -19.021596908569336, -19.38242530822754, -12.218685150146484, -11.032544136047363, 10.994771003723145, 11.427471160888672, -9.998903274536133, 8.737947463989258, -10.413500785827637, 9.538341522216797], "gru.bias_hh_l0": [6.471466541290283, 10.62794017791748, 11.014732360839844, 10.773262023925781, 4.94993257522583, 6.771723747253418, 9.271400451660156, 5.572696208953857, -1.8932915925979614, -19.1081600189209, -15.39551830291748, -19.48236083984375, -17.582677841186523, -19.46273422241211, -19.514150619506836, -19.155176162719727, -15.324179649353027, -11.975067138671875, 11.629295349121094, 11.327436447143555, -12.229976654052734, 13.923768043518066, -10.569400787353516, 10.49048900604248], "fc.weight": [[8708.7626953125, 7962.4404296875, -9034.4169921875, -7938.083984375, 3939.707763671875, -2509.552978515625, 7986.94775390625, -2645.335693359375], [8470.078125, -2059.374755859375, -8942.3330078125, 1958.124755859375, 12910.05078125, -2422.198486328125, -1942.4248046875, -2539.59619140625], [-8218.087890625, 2211.569091796875, 8518.8701171875, -2122.993896484375, -3899.860595703125, -7903.2197265625, 2097.058349609375, -7803.81591796875], [-8845.0380859375, 2252.23291015625, 8435.1337890625, -2199.036376953125, -3027.431396484375, -7903.0400390625, 2251.1669921875, -7912.9013671875], [8688.5810546875, 7964.43701171875, -9004.087890625, -7920.033203125, 3959.745849609375, -2511.20458984375, 7964.87353515625, -2634.90185546875]], "fc.bias": [-9292.9580078125, -9008.7255859375, 8839.603515625, 8692.490234375, -9283.275390625]}, "k": 5, "hidden_size": 8, "layer_n": 1, "params": {"epochs": 5000, "learning_rate": 0.1, "discount_factor": 1, "epsilon": 0.1, "replay_buffer_capacity": 64, "update_interval": 20, "minibatch_size": 32, "hidden_size": 8, "layer_n": 1, "seed": 43}}}